{"learner":{"attributes":{"scikit_learn":"{\"_estimator_type\": \"classifier\"}"},"feature_names":["temperature_degC","pression_hPa","humidite_%","point_de_rosee_degC","vent_moyen_km/h","Mois","Heure","variation_pression_3h","variation_humidite_3h","variation_vent_3h","variation_pression_1h","variation_humidite_1h","variation_vent_1h","pluie_1h_avant","pluie_3h","vent_dir_sin","vent_dir_cos"],"feature_types":["float","float","float","float","float","int","int","float","float","float","float","float","float","float","float","float","float"],"gradient_booster":{"model":{"cats":{"enc":[],"feature_segments":[],"sorted_idx":[]},"gbtree_model_param":{"num_parallel_tree":"1","num_trees":"400"},"iteration_indptr":[0,1,2,3,4,5,6,7,8,9,10,11,12,13,14,15,16,17,18,19,20,21,22,23,24,25,26,27,28,29,30,31,32,33,34,35,36,37,38,39,40,41,42,43,44,45,46,47,48,49,50,51,52,53,54,55,56,57,58,59,60,61,62,63,64,65,66,67,68,69,70,71,72,73,74,75,76,77,78,79,80,81,82,83,84,85,86,87,88,89,90,91,92,93,94,95,96,97,98,99,100,101,102,103,104,105,106,107,108,109,110,111,112,113,114,115,116,117,118,119,120,121,122,123,124,125,126,127,128,129,130,131,132,133,134,135,136,137,138,139,140,141,142,143,144,145,146,147,148,149,150,151,152,153,154,155,156,157,158,159,160,161,162,163,164,165,166,167,168,169,170,171,172,173,174,175,176,177,178,179,180,181,182,183,184,185,186,187,188,189,190,191,192,193,194,195,196,197,198,199,200,201,202,203,204,205,206,207,208,209,210,211,212,213,214,215,216,217,218,219,220,221,222,223,224,225,226,227,228,229,230,231,232,233,234,235,236,237,238,239,240,241,242,243,244,245,246,247,248,249,250,251,252,253,254,255,256,257,258,259,260,261,262,263,264,265,266,267,268,269,270,271,272,273,274,275,276,277,278,279,280,281,282,283,284,285,286,287,288,289,290,291,292,293,294,295,296,297,298,299,300,301,302,303,304,305,306,307,308,309,310,311,312,313,314,315,316,317,318,319,320,321,322,323,324,325,326,327,328,329,330,331,332,333,334,335,336,337,338,339,340,341,342,343,344,345,346,347,348,349,350,351,352,353,354,355,356,357,358,359,360,361,362,363,364,365,366,367,368,369,370,371,372,373,374,375,376,377,378,379,380,381,382,383,384,385,386,387,388,389,390,391,392,393,394,395,396,397,398,399,400],"tree_info":[0,0,0,0,0,0,0,0,0,0,0,0,0,0,0,0,0,0,0,0,0,0,0,0,0,0,0,0,0,0,0,0,0,0,0,0,0,0,0,0,0,0,0,0,0,0,0,0,0,0,0,0,0,0,0,0,0,0,0,0,0,0,0,0,0,0,0,0,0,0,0,0,0,0,0,0,0,0,0,0,0,0,0,0,0,0,0,0,0,0,0,0,0,0,0,0,0,0,0,0,0,0,0,0,0,0,0,0,0,0,0,0,0,0,0,0,0,0,0,0,0,0,0,0,0,0,0,0,0,0,0,0,0,0,0,0,0,0,0,0,0,0,0,0,0,0,0,0,0,0,0,0,0,0,0,0,0,0,0,0,0,0,0,0,0,0,0,0,0,0,0,0,0,0,0,0,0,0,0,0,0,0,0,0,0,0,0,0,0,0,0,0,0,0,0,0,0,0,0,0,0,0,0,0,0,0,0,0,0,0,0,0,0,0,0,0,0,0,0,0,0,0,0,0,0,0,0,0,0,0,0,0,0,0,0,0,0,0,0,0,0,0,0,0,0,0,0,0,0,0,0,0,0,0,0,0,0,0,0,0,0,0,0,0,0,0,0,0,0,0,0,0,0,0,0,0,0,0,0,0,0,0,0,0,0,0,0,0,0,0,0,0,0,0,0,0,0,0,0,0,0,0,0,0,0,0,0,0,0,0,0,0,0,0,0,0,0,0,0,0,0,0,0,0,0,0,0,0,0,0,0,0,0,0,0,0,0,0,0,0,0,0,0,0,0,0,0,0,0,0,0,0,0,0,0,0,0,0,0,0,0,0,0,0,0,0,0,0,0,0,0,0,0,0,0,0,0,0,0,0,0,0,0,0,0,0,0,0,0,0,0,0,0,0,0,0,0,0,0,0],"trees":[{"base_weights":[-3.122396E-3,-9.996035E-2,1.825946E0,1.1224437E0,1.9196576E0,1.4272196E0,-1.6502716E-1,1.6587509E0,1.9373605E0,1.0737214E0,1.8347667E0,-9.565218E-2,8.129457E-1,9.1684026E-1,9.356501E-2,1.9393802E0,1.120131E0,6.287176E-2,1.6990932E-2,2.1295356E-2,9.284901E-2,5.8936346E-2,-8.260869E-2,5.640937E-2,5.8620046E-3,9.708695E-2,6.7961626E-2,7.287178E-2,1.2445382E-2],"categories":[],"categories_nodes":[],"categories_segments":[],"categories_sizes":[],"default_left":[0,0,0,0,0,0,0,0,0,0,0,0,0,0,0,0,0,0,0,0,0,0,0,0,0,0,0,0,0],"id":0,"left_children":[1,-1,3,5,7,9,11,13,15,17,19,-1,21,23,-1,25,27,-1,-1,-1,-1,-1,-1,-1,-1,-1,-1,-1,-1],"loss_changes":[1.9254396E4,0E0,1.7927539E2,1.281174E2,7.9960938E0,3.6009888E1,1.0973085E2,2.3699982E1,1.5703125E0,1.8932037E1,2.9971313E0,0E0,3.916819E1,6.264496E0,0E0,4.5410156E-1,1.9751654E0,0E0,0E0,0E0,0E0,0E0,0E0,0E0,0E0,0E0,0E0,0E0,0E0],"parents":[2147483647,0,0,2,2,3,3,4,4,5,5,6,6,7,7,8,8,9,9,10,10,12,12,13,13,15,15,16,16],"right_children":[2,-1,4,6,8,10,12,14,16,18,20,-1,22,24,-1,26,28,-1,-1,-1,-1,-1,-1,-1,-1,-1,-1,-1,-1],"split_conditions":[2E-1,-9.996035E-2,6E-1,2E-1,2E-1,2E0,4E-1,1E0,2.25E1,1.6E1,6.3E1,-9.565218E-2,4E-1,5E-1,9.356501E-2,2.9E1,1.3E1,6.287176E-2,1.6990932E-2,2.1295356E-2,9.284901E-2,5.8936346E-2,-8.260869E-2,5.640937E-2,5.8620046E-3,9.708695E-2,6.7961626E-2,7.287178E-2,1.2445382E-2],"split_indices":[14,0,14,13,13,11,14,11,0,6,2,0,13,10,0,8,6,0,0,0,0,0,0,0,0,0,0,0,0],"split_type":[0,0,0,0,0,0,0,0,0,0,0,0,0,0,0,0,0,0,0,0,0,0,0,0,0,0,0,0,0],"sum_hessian":[5.271768E3,2.52075E3,2.751018E3,3.24905E2,2.4261133E3,2.6262634E2,6.2278652E1,1.6017256E2,2.2659407E3,1.4258531E2,1.2004104E2,2.2E1,4.0278652E1,3.685222E1,1.2332034E2,2.2589849E3,6.9557304E0,1.1346812E2,2.9117191E1,2.1764326E0,1.1786461E2,3.5528652E1,4.75E0,2.8822922E1,8.029298E0,2.2474998E3,1.1485028E1,4.529298E0,2.4264326E0],"tree_param":{"num_deleted":"0","num_feature":"17","num_nodes":"29","size_leaf_vector":"1"}},{"base_weights":[-3.8786132E-3,-9.5206104E-2,1.7411274E0,1.0469209E0,1.8273665E0,1.2969197E0,-2.9427793E-2,1.5907416E0,1.8436254E0,6.908688E-1,1.4514111E0,-9.09903E-2,9.69153E-1,2.5716147E-1,1.6505297E0,1.844417E0,2.967809E-2,-9.281597E-3,5.287872E-2,7.998996E-2,5.132707E-2,6.1757427E-2,-7.340947E-2,4.374048E-2,-6.511439E-2,8.397904E-2,3.769043E-2,8.523748E-2,9.277964E-2],"categories":[],"categories_nodes":[],"categories_segments":[],"categories_sizes":[],"default_left":[0,0,0,0,0,0,0,0,0,0,0,0,0,0,0,0,0,0,0,0,0,0,0,0,0,0,0,0,0],"id":1,"left_children":[1,-1,3,5,7,9,11,13,15,17,19,-1,21,23,25,27,-1,-1,-1,-1,-1,-1,-1,-1,-1,-1,-1,-1,-1],"loss_changes":[1.7569377E4,0E0,1.6344531E2,8.2795044E1,6.513672E0,2.2367401E1,1.07150505E2,1.2744507E1,1.1733398E0,1.7106358E1,1.084021E1,0E0,2.6769539E1,9.1064005E0,2.847168E0,4.1015625E-1,0E0,0E0,0E0,0E0,0E0,0E0,0E0,0E0,0E0,0E0,0E0,0E0,0E0],"parents":[2147483647,0,0,2,2,3,3,4,4,5,5,6,6,7,7,8,8,9,9,10,10,12,12,13,13,14,14,15,15],"right_children":[2,-1,4,6,8,10,12,14,16,18,20,-1,22,24,26,28,-1,-1,-1,-1,-1,-1,-1,-1,-1,-1,-1,-1,-1],"split_conditions":[2E-1,-9.5206104E-2,6E-1,2E-1,2E-1,-2E0,4E-1,-8E0,3.9E1,1.0059E3,7E-1,-9.09903E-2,4E-1,7.1E1,2.8E0,8E-1,2.967809E-2,-9.281597E-3,5.287872E-2,7.998996E-2,5.132707E-2,6.1757427E-2,-7.340947E-2,4.374048E-2,-6.511439E-2,8.397904E-2,3.769043E-2,8.523748E-2,9.277964E-2],"split_indices":[14,0,14,13,13,8,14,8,8,1,7,0,13,2,7,14,0,0,0,0,0,0,0,0,0,0,0,0,0],"split_type":[0,0,0,0,0,0,0,0,0,0,0,0,0,0,0,0,0,0,0,0,0,0,0,0,0,0,0,0,0],"sum_hessian":[5.296467E3,2.5354114E3,2.7610554E3,3.0654825E2,2.454507E3,2.4860172E2,5.794655E1,1.6416467E2,2.2903425E3,5.1610786E1,1.9699092E2,2.045318E1,3.7493366E1,7.2716184E0,1.5689305E2,2.288418E3,1.9244887E0,1.5369161E1,3.6241627E1,1.4395018E2,5.304075E1,3.4248905E1,3.2444618E0,5.523115E0,1.7485033E0,1.5112405E2,5.768996E0,1.8092255E2,2.1074954E3],"tree_param":{"num_deleted":"0","num_feature":"17","num_nodes":"29","size_leaf_vector":"1"}},{"base_weights":[-1.0099008E-2,-9.109866E-2,1.6600978E0,9.6715343E-1,1.7458122E0,1.2504897E0,-1.8074264E-1,1.4918661E0,1.7623291E0,9.101374E-1,1.6839281E0,-8.74761E-2,7.42537E-1,8.5718125E-1,1.7185727E0,1.7631167E0,2.7243664E-2,5.8151722E-2,1.4546205E-2,3.600063E-2,8.66139E-2,5.504346E-2,-7.6560825E-2,5.8601834E-2,-4.7064837E-2,2.8138692E-2,8.667415E-2,8.3684996E-2,8.8995375E-2],"categories":[],"categories_nodes":[],"categories_segments":[],"categories_sizes":[],"default_left":[0,0,0,0,0,0,0,0,0,0,0,0,0,0,0,0,0,0,0,0,0,0,0,0,0,0,0,0,0],"id":2,"left_children":[1,-1,3,5,7,9,11,13,15,17,19,-1,21,23,25,27,-1,-1,-1,-1,-1,-1,-1,-1,-1,-1,-1,-1,-1],"loss_changes":[1.5864115E4,0E0,1.603291E2,9.8616455E1,7.5473633E0,3.427893E1,8.930778E1,2.0784302E1,1.2182617E0,2.1296295E1,3.6742249E0,0E0,3.342238E1,2.5286263E1,9.7143555E-1,4.3017578E-1,0E0,0E0,0E0,0E0,0E0,0E0,0E0,0E0,0E0,0E0,0E0,0E0,0E0],"parents":[2147483647,0,0,2,2,3,3,4,4,5,5,6,6,7,7,8,8,9,9,10,10,12,12,13,13,14,14,15,15],"right_children":[2,-1,4,6,8,10,12,14,16,18,20,-1,22,24,26,28,-1,-1,-1,-1,-1,-1,-1,-1,-1,-1,-1,-1,-1],"split_conditions":[2E-1,-9.109866E-2,6E-1,2E-1,2E-1,2E0,4E-1,1E0,3.5E1,7E-1,7E1,-8.74761E-2,4E-1,5E-1,-1E1,1E0,2.7243664E-2,5.8151722E-2,1.4546205E-2,3.600063E-2,8.66139E-2,5.504346E-2,-7.6560825E-2,5.8601834E-2,-4.7064837E-2,2.8138692E-2,8.667415E-2,8.3684996E-2,8.8995375E-2],"split_indices":[14,0,14,13,13,11,14,11,8,7,2,0,13,10,8,14,0,0,0,0,0,0,0,0,0,0,0,0,0],"split_type":[0,0,0,0,0,0,0,0,0,0,0,0,0,0,0,0,0,0,0,0,0,0,0,0,0,0,0,0,0],"sum_hessian":[5.24028E3,2.513489E3,2.7267908E3,3.0151587E2,2.425275E3,2.417541E2,5.9761776E1,1.5368661E2,2.2715884E3,1.3715477E2,1.0459933E2,2.1809513E1,3.7952263E1,4.1706547E1,1.1198007E2,2.2696719E3,1.9165525E0,9.6758675E1,4.0396095E1,5.755133E0,9.884419E1,3.3231052E1,4.721211E0,3.5789314E1,5.9172344E0,1.9196293E0,1.1006044E2,3.7473688E2,1.8949349E3],"tree_param":{"num_deleted":"0","num_feature":"17","num_nodes":"29","size_leaf_vector":"1"}},{"base_weights":[7.030895E-3,-8.751803E-2,1.5984542E0,9.9303555E-1,1.6781747E0,1.2595108E0,-1.7930314E-1,1.4518515E0,1.6941017E0,9.68607E-1,1.6280228E0,-8.4199175E-2,7.266741E-1,1.0399296E0,8.170252E-2,1.6961825E0,-6.256571E-2,5.853295E-2,2.808621E-2,3.939982E-2,8.3152525E-2,5.3772938E-2,-7.386301E-2,-2.6379047E-2,5.864417E-2,7.695845E-2,8.538806E-2,-6.0723107E-2,5.1831096E-2],"categories":[],"categories_nodes":[],"categories_segments":[],"categories_sizes":[],"default_left":[0,0,0,0,0,0,0,0,0,0,0,0,0,0,0,0,0,0,0,0,0,0,0,0,0,0,0,0,0],"id":3,"left_children":[1,-1,3,5,7,9,11,13,15,17,19,-1,21,23,-1,25,27,-1,-1,-1,-1,-1,-1,-1,-1,-1,-1,-1,-1],"loss_changes":[1.466221E4,0E0,1.3111816E2,1.0099643E2,6.298828E0,2.661203E1,8.385699E1,1.0814178E1,8.380859E0,1.1626389E1,2.0596008E0,0E0,3.1209982E1,1.1848125E1,0E0,1.4824219E0,5.8712883E0,0E0,0E0,0E0,0E0,0E0,0E0,0E0,0E0,0E0,0E0,0E0,0E0],"parents":[2147483647,0,0,2,2,3,3,4,4,5,5,6,6,7,7,8,8,9,9,10,10,12,12,13,13,15,15,16,16],"right_children":[2,-1,4,6,8,10,12,14,16,18,20,-1,22,24,-1,26,28,-1,-1,-1,-1,-1,-1,-1,-1,-1,-1,-1,-1],"split_conditions":[2E-1,-8.751803E-2,6E-1,2E-1,2E-1,2E0,4E-1,1E0,2.25E1,2E-1,7.1E1,-8.4199175E-2,4E-1,-8.910065E-1,8.170252E-2,8E-1,8.6E1,5.853295E-2,2.808621E-2,3.939982E-2,8.3152525E-2,5.3772938E-2,-7.386301E-2,-2.6379047E-2,5.864417E-2,7.695845E-2,8.538806E-2,-6.0723107E-2,5.1831096E-2],"split_indices":[14,0,14,13,13,11,14,11,0,10,2,0,13,15,0,14,2,0,0,0,0,0,0,0,0,0,0,0,0],"split_type":[0,0,0,0,0,0,0,0,0,0,0,0,0,0,0,0,0,0,0,0,0,0,0,0,0,0,0,0,0],"sum_hessian":[5.2405806E3,2.4903806E3,2.7502002E3,3.2156982E2,2.4286304E3,2.6195297E2,5.961686E1,1.6573161E2,2.2628987E3,1.4841917E2,1.135338E2,2.208257E1,3.753429E1,5.2881916E1,1.128497E2,2.2602559E3,2.642814E0,9.791762E1,5.050156E1,5.4852057E0,1.0804859E2,3.284795E1,4.6863394E0,3.9025965E0,4.897932E1,1.644287E2,2.0958271E3,1.2392578E0,1.403556E0],"tree_param":{"num_deleted":"0","num_feature":"17","num_nodes":"29","size_leaf_vector":"1"}},{"base_weights":[1.6445728E-2,-8.437182E-2,1.5374515E0,8.839715E-1,1.6159679E0,1.1571194E0,-2.7526283E-1,1.3801864E0,1.632513E0,8.197246E-1,1.5657328E0,-8.117584E-2,5.830507E-1,-6.254914E-2,1.4553553E0,2.2378681E-2,8.166478E-2,-7.4510686E-2,4.3521237E-2,1.1628987E-2,7.952481E-2,4.5413226E-2,-7.071646E-2,3.437106E-2,-7.4593686E-2,5.5065144E-2,7.868117E-2],"categories":[],"categories_nodes":[],"categories_segments":[],"categories_sizes":[],"default_left":[0,0,0,0,0,0,0,0,0,0,0,0,0,0,0,0,0,0,0,0,0,0,0,0,0,0,0],"id":4,"left_children":[1,-1,3,5,7,9,11,13,15,17,19,-1,21,23,25,-1,-1,-1,-1,-1,-1,-1,-1,-1,-1,-1,-1],"loss_changes":[1.3444841E4,0E0,1.3920947E2,9.411322E1,7.288086E0,3.179309E1,6.724952E1,1.8184784E1,1.3823242E0,1.6933243E1,3.1760254E0,0E0,2.4502974E1,1.0910023E1,4.908905E0,0E0,0E0,0E0,0E0,0E0,0E0,0E0,0E0,0E0,0E0,0E0,0E0],"parents":[2147483647,0,0,2,2,3,3,4,4,5,5,6,6,7,7,8,8,9,9,10,10,12,12,13,13,14,14],"right_children":[2,-1,4,6,8,10,12,14,16,18,20,-1,22,24,26,-1,-1,-1,-1,-1,-1,-1,-1,-1,-1,-1,-1],"split_conditions":[2E-1,-8.437182E-2,6E-1,2E-1,2E-1,2E0,4E-1,-6E0,4.9E1,-1.4E1,-5E0,-8.117584E-2,4E-1,-5E0,1E0,2.2378681E-2,8.166478E-2,-7.4510686E-2,4.3521237E-2,1.1628987E-2,7.952481E-2,4.5413226E-2,-7.071646E-2,3.437106E-2,-7.4593686E-2,5.5065144E-2,7.868117E-2],"split_indices":[14,0,14,13,13,11,14,8,2,8,8,0,13,11,11,0,0,0,0,0,0,0,0,0,0,0,0],"split_type":[0,0,0,0,0,0,0,0,0,0,0,0,0,0,0,0,0,0,0,0,0,0,0,0,0,0,0],"sum_hessian":[5.1858237E3,2.445822E3,2.7400017E3,2.9521646E2,2.4447852E3,2.3892169E2,5.6294773E1,1.6584119E2,2.278944E3,1.3251189E2,1.06409805E2,2.155083E1,3.4743942E1,8.221016E0,1.5762016E2,1.8820515E0,2.277062E3,2.2361953E0,1.3027568E2,2.1300366E0,1.0427976E2,3.0347954E1,4.395987E0,5.7323146E0,2.4887013E0,4.2049847E1,1.1557031E2],"tree_param":{"num_deleted":"0","num_feature":"17","num_nodes":"27","size_leaf_vector":"1"}},{"base_weights":[-2.479245E-3,-8.1588455E-2,1.4822679E0,8.9956176E-1,1.5599676E0,1.1291426E0,-5.6857128E-2,1.3313051E0,1.5751843E0,7.696057E-1,1.404913E0,-7.843497E-2,7.531762E-1,8.9759463E-1,1.502627E0,1.4165597E0,7.939326E-2,4.224697E-2,-8.220052E-2,7.3982485E-2,3.1467974E-2,5.1354077E-2,-6.777053E-2,4.9372576E-2,-6.44356E-2,2.7020682E-2,7.575127E-2,7.4471734E-2,-9.364097E-2],"categories":[],"categories_nodes":[],"categories_segments":[],"categories_sizes":[],"default_left":[0,0,0,0,0,0,0,0,0,0,0,0,0,0,0,0,0,0,0,0,0,0,0,0,0,0,0,0,0],"id":5,"left_children":[1,-1,3,5,7,9,11,13,15,17,19,-1,21,23,25,27,-1,-1,-1,-1,-1,-1,-1,-1,-1,-1,-1,-1,-1],"loss_changes":[1.2171469E4,0E0,1.1778467E2,6.859076E1,5.9804688E0,2.3876923E1,7.633109E1,9.893616E0,2.118164E0,2.165866E1,7.2556763E0,0E0,2.4859177E1,1.0177143E1,4.574585E-1,4.353656E1,0E0,0E0,0E0,0E0,0E0,0E0,0E0,0E0,0E0,0E0,0E0,0E0,0E0],"parents":[2147483647,0,0,2,2,3,3,4,4,5,5,6,6,7,7,8,8,9,9,10,10,12,12,13,13,14,14,15,15],"right_children":[2,-1,4,6,8,10,12,14,16,18,20,-1,22,24,26,28,-1,-1,-1,-1,-1,-1,-1,-1,-1,-1,-1,-1,-1],"split_conditions":[2E-1,-8.1588455E-2,6E-1,2E-1,2E-1,1E0,4E-1,1E0,8E-1,8.09017E-1,9.1E1,-7.843497E-2,4E-1,1.1E1,-1E1,6E-1,7.939326E-2,4.224697E-2,-8.220052E-2,7.3982485E-2,3.1467974E-2,5.1354077E-2,-6.777053E-2,4.9372576E-2,-6.44356E-2,2.7020682E-2,7.575127E-2,7.4471734E-2,-9.364097E-2],"split_indices":[14,0,14,13,13,11,14,11,14,15,2,0,13,8,8,13,0,0,0,0,0,0,0,0,0,0,0,0,0],"split_type":[0,0,0,0,0,0,0,0,0,0,0,0,0,0,0,0,0,0,0,0,0,0,0,0,0,0,0,0,0],"sum_hessian":[5.0294385E3,2.3979475E3,2.631491E3,3.1108673E2,2.3204043E3,2.5072223E2,6.0364494E1,1.5030228E2,2.170102E3,1.1047746E2,1.4024477E2,2.073263E1,3.9631863E1,4.4326534E1,1.05975746E2,1.6898267E2,2.0011193E3,1.0776387E2,2.713593E0,1.27089806E2,1.315496E1,3.552949E1,4.102373E0,4.310334E1,1.2231928E0,1.9153603E0,1.0406039E2,1.6585541E2,3.1272645E0],"tree_param":{"num_deleted":"0","num_feature":"17","num_nodes":"29","size_leaf_vector":"1"}},{"base_weights":[-2.2405882E-3,-7.9111174E-2,1.4351463E0,8.6823744E-1,1.5107964E0,1.1163895E0,-1.8335506E-1,1.250407E0,1.5283965E0,7.018024E-1,1.4093083E0,-7.617018E-2,5.9412044E-1,8.046295E-1,1.4569925E0,1.5302035E0,6.9050014E-1,3.760545E-2,-7.313413E-2,1.168547E-2,7.2154336E-2,4.3801583E-2,-6.6518E-2,-3.8343914E-2,4.811021E-2,7.58928E-2,5.426543E-2,6.932542E-2,7.703766E-2,6.3429594E-2,-5.202384E-3],"categories":[],"categories_nodes":[],"categories_segments":[],"categories_sizes":[],"default_left":[0,0,0,0,0,0,0,0,0,0,0,0,0,0,0,0,0,0,0,0,0,0,0,0,0,0,0,0,0,0,0],"id":6,"left_children":[1,-1,3,5,7,9,11,13,15,17,19,-1,21,23,25,27,29,-1,-1,-1,-1,-1,-1,-1,-1,-1,-1,-1,-1,-1,-1],"loss_changes":[1.1191073E4,0E0,1.0934863E2,8.0092316E1,8.516113E0,2.91073E1,6.2694923E1,1.2599304E1,2.163086E0,1.2489429E1,5.390167E0,0E0,2.1918098E1,1.3017796E1,6.3642883E-1,1.0791016E0,3.071031E0,0E0,0E0,0E0,0E0,0E0,0E0,0E0,0E0,0E0,0E0,0E0,0E0,0E0,0E0],"parents":[2147483647,0,0,2,2,3,3,4,4,5,5,6,6,7,7,8,8,9,9,10,10,12,12,13,13,14,14,15,15,16,16],"right_children":[2,-1,4,6,8,10,12,14,16,18,20,-1,22,24,26,28,30,-1,-1,-1,-1,-1,-1,-1,-1,-1,-1,-1,-1,-1,-1],"split_conditions":[2E-1,-7.9111174E-2,6E-1,2E-1,2E-1,1E0,4E-1,1E0,2.25E1,1.62E1,7E1,-7.617018E-2,4E-1,-9.5105654E-1,1.49E1,8E-1,-9.2050487E-1,3.760545E-2,-7.313413E-2,1.168547E-2,7.2154336E-2,4.3801583E-2,-6.6518E-2,-3.8343914E-2,4.811021E-2,7.58928E-2,5.426543E-2,6.932542E-2,7.703766E-2,6.3429594E-2,-5.202384E-3],"split_indices":[14,0,14,13,13,11,14,11,0,3,2,0,13,16,3,14,16,0,0,0,0,0,0,0,0,0,0,0,0,0,0],"split_type":[0,0,0,0,0,0,0,0,0,0,0,0,0,0,0,0,0,0,0,0,0,0,0,0,0,0,0,0,0,0,0],"sum_hessian":[4.925716E3,2.3464194E3,2.5792966E3,3.051359E2,2.2741606E3,2.4682837E2,5.8307533E1,1.4854346E2,2.1256172E3,1.0359686E2,1.432315E2,2.1056078E1,3.7251457E1,4.8589752E1,9.9953705E1,2.1202185E3,5.3986487E0,1.0188147E2,1.71539E0,4.221701E0,1.3900981E2,3.2967014E1,4.28444E0,4.0756927E0,4.4514057E1,8.3239494E1,1.6714212E1,1.5407188E2,1.9661467E3,2.7796378E0,2.6190112E0],"tree_param":{"num_deleted":"0","num_feature":"17","num_nodes":"31","size_leaf_vector":"1"}},{"base_weights":[8.675163E-3,-1.1489468E0,1.4375185E0,-1.4580795E0,-7.840797E-1,-2.4391247E-1,1.4399332E0,-1.4634346E0,2.4139264E-1,-8.9270645E-1,4.5528626E-1,-5.862249E-2,4.580931E-2,1.3327692E0,1.475871E0,-1.4660459E0,4.4578083E-2,-4.9649574E-2,5.66754E-2,-9.47238E-1,6.624416E-1,-4.137907E-1,7.5705385E-1,1.2658595E0,7.405146E-2,1.4414103E0,1.5167322E0,-7.50753E-2,-6.636023E-2,-4.616579E-2,4.582728E-2,-5.559666E-2,-3.190156E-2,5.720057E-2,8.407952E-3,-7.008274E-2,1.4470286E-2,5.3468745E-2,1.2550865E-2,7.348419E-2,5.760729E-2,7.627659E-2,6.997093E-2,2.709186E-2,7.590237E-2],"categories":[],"categories_nodes":[],"categories_segments":[],"categories_sizes":[],"default_left":[0,0,0,0,0,0,0,0,0,0,0,0,0,0,0,0,0,0,0,0,0,0,0,0,0,0,0,0,0,0,0,0,0,0,0,0,0,0,0,0,0,0,0,0,0],"id":7,"left_children":[1,3,5,7,9,11,13,15,17,19,21,-1,-1,23,25,27,29,-1,-1,31,33,35,37,39,-1,41,43,-1,-1,-1,-1,-1,-1,-1,-1,-1,-1,-1,-1,-1,-1,-1,-1,-1,-1],"loss_changes":[8.094159E3,3.0377148E2,9.243652E0,1.3661377E1,1.6762231E2,5.378673E0,6.456543E0,5.805908E0,7.1289096E0,9.7500244E1,2.673647E1,0E0,0E0,3.6762695E0,1.0668945E-1,5.172119E0,3.7921932E0,0E0,0E0,5.5512512E1,9.1590805E0,1.889337E1,1.1606865E1,7.403076E0,0E0,1.0571289E0,1.0839844E-1,0E0,0E0,0E0,0E0,0E0,0E0,0E0,0E0,0E0,0E0,0E0,0E0,0E0,0E0,0E0,0E0,0E0,0E0],"parents":[2147483647,0,0,1,1,2,2,3,3,4,4,5,5,6,6,7,7,8,8,9,9,10,10,13,13,14,14,15,15,16,16,19,19,20,20,21,21,22,22,23,23,25,25,26,26],"right_children":[2,4,6,8,10,12,14,16,18,20,22,-1,-1,24,26,28,30,-1,-1,32,34,36,38,40,-1,42,44,-1,-1,-1,-1,-1,-1,-1,-1,-1,-1,-1,-1,-1,-1,-1,-1,-1,-1],"split_conditions":[2E-1,7.8E1,5.3E1,8.1E0,1.2E1,1.05E1,8.6E1,4.1E0,7.1E1,1.21E1,1E1,-5.862249E-2,4.580931E-2,3.6E0,8E-1,8E-1,1.36E1,-4.9649574E-2,5.66754E-2,8.8E1,2E0,1.12E1,7E0,-1.2E0,7.405146E-2,-1.9E0,-7E0,-7.50753E-2,-6.636023E-2,-4.616579E-2,4.582728E-2,-5.559666E-2,-3.190156E-2,5.720057E-2,8.407952E-3,-7.008274E-2,1.4470286E-2,5.3468745E-2,1.2550865E-2,7.348419E-2,5.760729E-2,7.627659E-2,6.997093E-2,2.709186E-2,7.590237E-2],"split_indices":[13,2,2,12,8,4,2,10,2,4,6,0,0,7,13,12,3,0,0,2,5,0,5,7,0,7,8,0,0,0,0,0,0,0,0,0,0,0,0,0,0,0,0,0,0],"split_type":[0,0,0,0,0,0,0,0,0,0,0,0,0,0,0,0,0,0,0,0,0,0,0,0,0,0,0,0,0,0,0,0,0,0,0,0,0,0,0,0,0,0,0,0,0],"sum_hessian":[4.8915103E3,2.7023296E3,2.1891807E3,1.4612732E3,1.2410565E3,2.996018E0,2.1861846E3,1.4568215E3,4.451576E0,1.1413043E3,9.975224E1,1.6581757E0,1.3378422E0,5.585896E2,1.627595E3,1.454331E3,2.490557E0,1.8201008E0,2.6314754E0,1.1030177E3,3.828663E1,2.5613966E1,7.413828E1,3.9146143E2,1.671282E2,9.026306E2,7.249644E2,1.1506421E3,3.0368893E2,1.1524435E0,1.3381133E0,7.1799207E2,3.850256E2,1.8726896E1,1.955973E1,1.0238067E1,1.5375898E1,4.515549E1,2.898279E1,1.3591626E2,2.5554515E2,2.887836E2,6.13847E2,1.5331156E0,7.234313E2],"tree_param":{"num_deleted":"0","num_feature":"17","num_nodes":"45","size_leaf_vector":"1"}},{"base_weights":[-1.5611621E-2,-1.0206828E0,6.658256E-1,-1.142299E0,5.322748E-1,8.757894E-1,-4.9745774E-1,-1.3216E0,-5.911923E-1,-2.8394224E-2,1.0786192E0,4.4103843E-1,1.0933237E0,-6.7254084E-1,1.2076297E0,-1.3440614E0,1.7810883E-1,-6.7932904E-2,-1.3347921E0,3.0664143E-1,-9.829279E-1,3.4660277E-1,1.4551147E0,-2.7644286E-1,8.0926055E-1,7.3399657E-1,1.2656567E0,-9.1091985E-1,2.0382771E-1,-5.418765E-2,1.3854434E0,8.854488E-3,-6.814819E-2,-6.402228E-2,4.176585E-2,-5.631856E-2,1.9046228E-2,4.8430678E-2,-6.885316E-2,-4.0903674E-3,4.1718073E-2,6.5526585E-3,-6.9689736E-2,3.588707E-2,-6.356915E-2,2.3175323E-2,7.415227E-2,-2.6954962E-2,5.7936527E-2,4.8236948E-2,1.8371613E-3,8.659854E-3,4.9377877E-2,6.900306E-2,4.693082E-2,1.7889895E-2,-5.0629046E-2,-7.008233E-2,2.1471603E-2,7.178622E-2,1.5144594E-2],"categories":[],"categories_nodes":[],"categories_segments":[],"categories_sizes":[],"default_left":[0,0,0,0,0,0,0,0,0,0,0,0,0,0,0,0,0,0,0,0,0,0,0,0,0,0,0,0,0,0,0,0,0,0,0,0,0,0,0,0,0,0,0,0,0,0,0,0,0,0,0,0,0,0,0,0,0,0,0,0,0],"id":8,"left_children":[1,3,5,7,9,11,13,15,17,19,21,23,25,27,29,31,33,35,37,39,41,43,45,47,49,51,53,55,57,-1,59,-1,-1,-1,-1,-1,-1,-1,-1,-1,-1,-1,-1,-1,-1,-1,-1,-1,-1,-1,-1,-1,-1,-1,-1,-1,-1,-1,-1,-1,-1],"loss_changes":[3.2334988E3,3.6088562E2,6.876472E2,1.7405737E2,4.2676727E1,2.2495801E2,1.2942685E2,4.5183105E1,1.6961572E2,2.2586653E1,1.8935753E1,2.1069301E2,9.741321E1,8.194116E1,1.7993145E1,3.8041748E1,2.0788288E1,1.2255575E2,1.8869263E1,1.0798011E1,8.577791E0,1.6087044E1,5.9402466E-1,1.0275522E2,6.3228455E1,7.336655E1,3.881189E1,4.006778E1,3.1209187E1,0E0,1.6335526E0,0E0,0E0,0E0,0E0,0E0,0E0,0E0,0E0,0E0,0E0,0E0,0E0,0E0,0E0,0E0,0E0,0E0,0E0,0E0,0E0,0E0,0E0,0E0,0E0,0E0,0E0,0E0,0E0,0E0,0E0],"parents":[2147483647,0,0,1,1,2,2,3,3,4,4,5,5,6,6,7,7,8,8,9,9,10,10,11,11,12,12,13,13,14,14,15,15,16,16,17,17,18,18,19,19,20,20,21,21,22,22,23,23,24,24,25,25,26,26,27,27,28,28,30,30],"right_children":[2,4,6,8,10,12,14,16,18,20,22,24,26,28,30,32,34,36,38,40,42,44,46,48,50,52,54,56,58,-1,60,-1,-1,-1,-1,-1,-1,-1,-1,-1,-1,-1,-1,-1,-1,-1,-1,-1,-1,-1,-1,-1,-1,-1,-1,-1,-1,-1,-1,-1,-1],"split_conditions":[8.1E1,9E-1,1.0194E3,7.6E1,1.7E0,8E-1,1.2E0,1E1,1.0164E3,1.016E3,3.2E0,8.9E1,8.7E1,8E0,5.4E0,-1.2E0,6.7E1,8E-1,-8E0,6.56059E-1,1E1,4.0673664E-1,5.1E0,6E0,1.1E1,9E0,1.1E1,-3.3E0,1.4E0,-5.418765E-2,1.4E1,8.854488E-3,-6.814819E-2,-6.402228E-2,4.176585E-2,-5.631856E-2,1.9046228E-2,4.8430678E-2,-6.885316E-2,-4.0903674E-3,4.1718073E-2,6.5526585E-3,-6.9689736E-2,3.588707E-2,-6.356915E-2,2.3175323E-2,7.415227E-2,-2.6954962E-2,5.7936527E-2,4.8236948E-2,1.8371613E-3,8.659854E-3,4.9377877E-2,6.900306E-2,4.693082E-2,1.7889895E-2,-5.0629046E-2,-7.008233E-2,2.1471603E-2,7.178622E-2,1.5144594E-2],"split_indices":[2,10,1,2,10,4,10,11,1,1,4,2,2,4,0,10,2,4,9,16,6,16,0,11,5,6,5,9,3,0,0,0,0,0,0,0,0,0,0,0,0,0,0,0,0,0,0,0,0,0,0,0,0,0,0,0,0,0,0,0,0],"split_type":[0,0,0,0,0,0,0,0,0,0,0,0,0,0,0,0,0,0,0,0,0,0,0,0,0,0,0,0,0,0,0,0,0,0,0,0,0,0,0,0,0,0,0,0,0,0,0,0,0,0,0,0,0,0,0,0,0,0,0,0,0],"sum_hessian":[4.719182E3,1.906594E3,2.812588E3,1.7683726E3,1.3822148E2,2.3827642E3,4.2982367E2,1.3332164E3,4.3515613E2,6.868433E1,6.953714E1,7.956513E2,1.5871129E3,3.903473E2,3.9476376E1,1.3136455E3,1.9570883E1,2.5606125E2,1.790949E2,5.1342262E1,1.7342077E1,2.4269936E1,4.52672E1,2.6993393E2,5.2571735E2,5.1615344E2,1.0709595E3,3.0684396E2,8.350334E1,2.475907E0,3.700047E1,1.6020714E1,1.2976248E3,5.7846317E0,1.3786252E1,7.580297E1,1.8025829E2,2.8325238E0,1.7626236E2,3.0060236E1,2.1282024E1,4.856286E0,1.2485791E1,2.019414E1,4.0757966E0,1.7221314E0,4.354507E1,2.2870259E2,4.1231335E1,4.3743042E2,8.828695E1,1.6123463E2,3.5491882E2,7.9102515E2,2.7993433E2,2.257619E1,2.8426776E2,9.646048E0,7.385729E1,3.504644E1,1.9540308E0],"tree_param":{"num_deleted":"0","num_feature":"17","num_nodes":"61","size_leaf_vector":"1"}},{"base_weights":[-5.2891383E-3,-7.416392E-2,1.3374562E0,8.3825356E-1,1.4065517E0,4.8086885E-1,1.3671392E0,1.4077108E0,5.0480795E-1,7.434059E-1,-8.296357E-2,-5.2090332E-2,6.992104E-2,1.2915397E0,1.4193496E0,4.422611E-2,2.1415406E-3,3.8687468E-2,-6.212349E-2,-7.195796E-2,1.2368798E-2,-5.536112E-2,4.7439486E-2,6.554724E-2,-8.972707E-3,6.029988E-2,7.1222305E-2],"categories":[],"categories_nodes":[],"categories_segments":[],"categories_sizes":[],"default_left":[0,0,0,0,0,0,0,0,0,0,0,0,0,0,0,0,0,0,0,0,0,0,0,0,0,0,0],"id":9,"left_children":[1,-1,3,5,7,9,11,13,15,17,19,21,-1,23,25,-1,-1,-1,-1,-1,-1,-1,-1,-1,-1,-1,-1],"loss_changes":[9.229089E3,0E0,8.286963E1,5.5808594E1,1.5253906E0,2.6679188E1,5.396866E0,1.0546875E0,7.173213E-1,8.36039E0,2.635232E1,4.799867E0,0E0,6.103607E0,3.815918E-1,0E0,0E0,0E0,0E0,0E0,0E0,0E0,0E0,0E0,0E0,0E0,0E0],"parents":[2147483647,0,0,2,2,3,3,4,4,5,5,6,6,7,7,8,8,9,9,10,10,11,11,13,13,14,14],"right_children":[2,-1,4,6,8,10,12,14,16,18,20,22,-1,24,26,-1,-1,-1,-1,-1,-1,-1,-1,-1,-1,-1,-1],"split_conditions":[2E-1,-7.416392E-2,6E-1,2E0,4E1,7E-1,-5E0,8E-1,1.0057E3,1.76E1,0E0,8E0,6.992104E-2,1.68E1,1E0,4.422611E-2,2.1415406E-3,3.8687468E-2,-6.212349E-2,-7.195796E-2,1.2368798E-2,-5.536112E-2,4.7439486E-2,6.554724E-2,-8.972707E-3,6.029988E-2,7.1222305E-2],"split_indices":[14,0,14,11,8,7,8,14,1,3,9,11,0,3,6,0,0,0,0,0,0,0,0,0,0,0,0],"split_type":[0,0,0,0,0,0,0,0,0,0,0,0,0,0,0,0,0,0,0,0,0,0,0,0,0,0,0],"sum_hessian":[4.648438E3,2.2127314E3,2.4357068E3,2.9773727E2,2.1379695E3,1.7881534E2,1.1892195E2,2.1346643E3,3.3051488E0,1.2178851E2,5.7026817E1,2.5503132E0,1.16371635E2,2.045838E2,1.9300804E3,1.3120701E0,1.9930787E0,1.2055682E2,1.2316921E0,1.0512318E1,4.65145E1,1.1897864E0,1.3605268E0,2.0202748E2,2.5563216E0,5.0574986E1,1.8795055E3],"tree_param":{"num_deleted":"0","num_feature":"17","num_nodes":"27","size_leaf_vector":"1"}},{"base_weights":[-4.759648E-3,-7.244521E-2,1.2951555E0,7.833554E-1,1.3677034E0,1.0024911E0,-1.6827336E-1,1.120541E0,1.3846731E0,3.3003733E-1,1.1426547E0,-7.5854786E-2,5.621955E-1,-2.2894166E-1,1.2108161E0,1.2444822E0,6.979667E-2,2.9019872E-2,-5.1596344E-2,4.879024E-2,7.2385624E-2,4.1465726E-2,-6.6559784E-2,-7.19498E-2,1.3577121E-2,4.008859E-2,6.730713E-2,6.5775596E-2,-9.572079E-2],"categories":[],"categories_nodes":[],"categories_segments":[],"categories_sizes":[],"default_left":[0,0,0,0,0,0,0,0,0,0,0,0,0,0,0,0,0,0,0,0,0,0,0,0,0,0,0,0,0],"id":10,"left_children":[1,-1,3,5,7,9,11,13,15,17,19,-1,21,23,25,27,-1,-1,-1,-1,-1,-1,-1,-1,-1,-1,-1,-1,-1],"loss_changes":[8.585016E3,0E0,8.829199E1,6.2968033E1,7.2836914E0,2.2707611E1,5.7232544E1,1.7404144E1,1.3681641E0,1.5483189E1,8.88266E0,0E0,2.0246712E1,6.2385426E0,6.223648E0,3.7400436E1,0E0,0E0,0E0,0E0,0E0,0E0,0E0,0E0,0E0,0E0,0E0,0E0,0E0],"parents":[2147483647,0,0,2,2,3,3,4,4,5,5,6,6,7,7,8,8,9,9,10,10,12,12,13,13,14,14,15,15],"right_children":[2,-1,4,6,8,10,12,14,16,18,20,-1,22,24,26,28,-1,-1,-1,-1,-1,-1,-1,-1,-1,-1,-1,-1,-1],"split_conditions":[2E-1,-7.244521E-2,6E-1,2E-1,2E-1,-2E0,4E-1,-6E0,8E-1,6E-1,4E0,-7.5854786E-2,4E-1,8E-1,1E0,6E-1,6.979667E-2,2.9019872E-2,-5.1596344E-2,4.879024E-2,7.2385624E-2,4.1465726E-2,-6.6559784E-2,-7.19498E-2,1.3577121E-2,4.008859E-2,6.730713E-2,6.5775596E-2,-9.572079E-2],"split_indices":[14,0,14,13,13,8,14,8,14,10,11,0,13,14,11,13,0,0,0,0,0,0,0,0,0,0,0,0,0],"split_type":[0,0,0,0,0,0,0,0,0,0,0,0,0,0,0,0,0,0,0,0,0,0,0,0,0,0,0,0,0],"sum_hessian":[4.5711504E3,2.16539E3,2.4057605E3,3.0014413E2,2.1056162E3,2.4392177E2,5.6222366E1,1.3958665E2,1.9660297E3,4.265124E1,2.0127054E2,1.9372976E1,3.684939E1,8.655992E0,1.3093066E2,1.5446237E2,1.8115673E3,3.6513145E1,6.1380954E0,1.328226E2,6.844792E1,3.2785954E1,4.063436E0,1.9839802E0,6.672012E0,3.4269806E1,9.666086E1,1.5163629E2,2.8260834E0],"tree_param":{"num_deleted":"0","num_feature":"17","num_nodes":"29","size_leaf_vector":"1"}},{"base_weights":[-1.55779915E-2,-7.087847E-2,1.264624E0,7.792329E-1,1.3359935E0,9.904644E-1,-6.1488144E-2,1.3372942E0,-5.888144E-5,7.411668E-1,1.4076855E0,-7.385162E-2,6.38969E-1,1.1592628E0,1.3505607E0,4.8224147E-2,1.35755865E-2,1.9818304E-2,7.123409E-2,-1.4097351E-2,5.991375E-2,3.135436E-2,6.74479E-2,1.6518516E-2,6.756787E-2],"categories":[],"categories_nodes":[],"categories_segments":[],"categories_sizes":[],"default_left":[0,0,0,0,0,0,0,0,0,0,0,0,0,0,0,0,0,0,0,0,0,0,0,0,0],"id":11,"left_children":[1,-1,3,5,7,9,11,13,-1,15,17,-1,19,21,23,-1,-1,-1,-1,-1,-1,-1,-1,-1,-1],"loss_changes":[7.9279136E3,0E0,7.894214E1,5.3045944E1,3.5E0,2.3764526E1,6.1280598E1,3.18042E0,0E0,1.5618431E1,9.495697E-1,0E0,2.1665258E1,1.3935272E1,1.0683594E0,0E0,0E0,0E0,0E0,0E0,0E0,0E0,0E0,0E0,0E0],"parents":[2147483647,0,0,2,2,3,3,4,4,5,5,6,6,7,7,9,9,10,10,12,12,13,13,14,14],"right_children":[2,-1,4,6,8,10,12,14,-1,16,18,-1,20,22,24,-1,-1,-1,-1,-1,-1,-1,-1,-1,-1],"split_conditions":[2E-1,-7.087847E-2,6E-1,2E-1,4E1,3E0,4E-1,2E-1,-5.888144E-5,7E-1,-9E0,-7.385162E-2,1E0,1E0,5.7E1,4.8224147E-2,1.35755865E-2,1.9818304E-2,7.123409E-2,-1.4097351E-2,5.991375E-2,3.135436E-2,6.74479E-2,1.6518516E-2,6.756787E-2],"split_indices":[14,0,14,13,8,11,14,13,0,7,8,0,11,11,2,0,0,0,0,0,0,0,0,0,0],"split_type":[0,0,0,0,0,0,0,0,0,0,0,0,0,0,0,0,0,0,0,0,0,0,0,0,0],"sum_hessian":[4.4150796E3,2.1072517E3,2.3078281E3,2.9736145E2,2.0104666E3,2.375091E2,5.9852356E1,2.0085128E3,1.9537896E0,1.5041167E2,8.709742E1,1.9445845E1,4.040651E1,1.4541945E2,1.8630934E3,1.0122609E2,4.918558E1,1.8415486E0,8.5255875E1,1.5455088E1,2.4951424E1,3.93452E1,1.0607426E2,1.7780733E0,1.8613153E3],"tree_param":{"num_deleted":"0","num_feature":"17","num_nodes":"25","size_leaf_vector":"1"}},{"base_weights":[1.8749981E-3,-6.9448136E-2,1.2278107E0,7.010131E-1,1.3045042E0,4.1333562E-1,1.295161E0,1.3143114E0,1.0753386E0,6.7196625E-1,-2.2368489E-1,-4.6812806E-2,6.658529E-2,1.1836245E0,1.3266073E0,-5.0732327E-1,1.1227006E0,3.5990294E-2,-3.61717E-2,-8.2914084E-2,2.938157E-3,2.3443863E-2,6.07464E-2,2.094645E-2,6.6354826E-2,3.7318215E-2,-7.7659E-2,6.337669E-2,3.7967287E-2],"categories":[],"categories_nodes":[],"categories_segments":[],"categories_sizes":[],"default_left":[0,0,0,0,0,0,0,0,0,0,0,0,0,0,0,0,0,0,0,0,0,0,0,0,0,0,0,0,0],"id":12,"left_children":[1,-1,3,5,7,9,11,13,15,17,19,-1,-1,21,23,25,27,-1,-1,-1,-1,-1,-1,-1,-1,-1,-1,-1,-1],"loss_changes":[7.415165E3,0E0,9.24729E1,5.004225E1,3.1191406E0,3.323984E1,9.080612E0,1.5297852E0,7.185234E0,1.007325E1,2.390139E1,0E0,0E0,3.3500214E0,2.2338867E-1,5.424755E0,3.563568E0,0E0,0E0,0E0,0E0,0E0,0E0,0E0,0E0,0E0,0E0,0E0,0E0],"parents":[2147483647,0,0,2,2,3,3,4,4,5,5,6,6,7,7,8,8,9,9,10,10,13,13,14,14,15,15,16,16],"right_children":[2,-1,4,6,8,10,12,14,16,18,20,-1,-1,22,24,26,28,-1,-1,-1,-1,-1,-1,-1,-1,-1,-1,-1,-1],"split_conditions":[2E-1,-6.9448136E-2,6E-1,3E0,1.96E1,3E-1,6.4E1,8E-1,1.0021E3,1.62E1,7.8E1,-4.6812806E-2,6.658529E-2,-8E0,-2.1E1,2E1,-2.4492937E-16,3.5990294E-2,-3.61717E-2,-8.2914084E-2,2.938157E-3,2.3443863E-2,6.07464E-2,2.094645E-2,6.6354826E-2,3.7318215E-2,-7.7659E-2,6.337669E-2,3.7967287E-2],"split_indices":[14,0,14,11,0,10,2,14,1,3,2,0,0,8,11,0,15,0,0,0,0,0,0,0,0,0,0,0,0],"split_type":[0,0,0,0,0,0,0,0,0,0,0,0,0,0,0,0,0,0,0,0,0,0,0,0,0,0,0,0,0],"sum_hessian":[4.346872E3,2.0364098E3,2.3104624E3,2.9490872E2,2.0155537E3,1.9984329E2,9.506544E1,1.9282955E3,8.725815E1,1.42097E2,5.77463E1,1.1351283E0,9.3930305E1,1.741886E2,1.7541069E3,2.253196E0,8.500495E1,1.3785495E2,4.2420397E0,8.69779E0,4.904851E1,7.9792128E0,1.662094E2,1.4067148E0,1.7527002E3,1.1550169E0,1.0981791E0,5.899941E1,2.6005545E1],"tree_param":{"num_deleted":"0","num_feature":"17","num_nodes":"29","size_leaf_vector":"1"}},{"base_weights":[-8.109573E-3,-6.81371E-2,1.2000725E0,6.6952306E-1,1.2747877E0,8.9415705E-1,-1.5983504E-1,1.0360646E0,1.2921343E0,4.382817E-1,1.0246409E0,-7.217406E-2,4.7957763E-1,-2.8612235E-1,1.0959276E0,1.1917404E0,1.3117505E0,-6.037257E-3,4.386549E-2,5.8324527E-2,3.2618452E-2,-8.0420606E-2,3.3906814E-2,-6.824356E-2,1.8326065E-2,5.671869E-2,7.6202787E-3,6.2103946E-2,-2.7594512E-2,6.566771E-2,2.1151053E-2],"categories":[],"categories_nodes":[],"categories_segments":[],"categories_sizes":[],"default_left":[0,0,0,0,0,0,0,0,0,0,0,0,0,0,0,0,0,0,0,0,0,0,0,0,0,0,0,0,0,0,0],"id":13,"left_children":[1,-1,3,5,7,9,11,13,15,17,19,-1,21,23,25,27,29,-1,-1,-1,-1,-1,-1,-1,-1,-1,-1,-1,-1,-1,-1],"loss_changes":[6.8505156E3,0E0,8.68479E1,5.1416267E1,6.687744E0,1.2441895E1,4.95322E1,1.1105377E1,1.9873047E0,1.2370693E1,8.096756E0,0E0,1.7869064E1,5.216434E0,4.5663147E0,2.7510498E1,1.5795898E0,0E0,0E0,0E0,0E0,0E0,0E0,0E0,0E0,0E0,0E0,0E0,0E0,0E0,0E0],"parents":[2147483647,0,0,2,2,3,3,4,4,5,5,6,6,7,7,8,8,9,9,10,10,12,12,13,13,14,14,15,15,16,16],"right_children":[2,-1,4,6,8,10,12,14,16,18,20,-1,22,24,26,28,30,-1,-1,-1,-1,-1,-1,-1,-1,-1,-1,-1,-1,-1,-1],"split_conditions":[2E-1,-6.81371E-2,6E-1,2E-1,2E-1,-1E0,4E-1,-8E0,1E0,1.38E1,1.012E3,-7.217406E-2,1.0016E3,1.55E1,2.8E0,6E-1,2.25E1,-6.037257E-3,4.386549E-2,5.8324527E-2,3.2618452E-2,-8.0420606E-2,3.3906814E-2,-6.824356E-2,1.8326065E-2,5.671869E-2,7.6202787E-3,6.2103946E-2,-2.7594512E-2,6.566771E-2,2.1151053E-2],"split_indices":[14,0,14,13,13,8,14,8,14,0,1,0,1,0,7,13,0,0,0,0,0,0,0,0,0,0,0,0,0,0,0],"split_type":[0,0,0,0,0,0,0,0,0,0,0,0,0,0,0,0,0,0,0,0,0,0,0,0,0,0,0,0,0,0,0],"sum_hessian":[4.1837134E3,1.9722587E3,2.2114548E3,2.7421628E2,1.9372386E3,2.1571196E2,5.8504337E1,1.3534612E2,1.8018926E3,4.897286E1,1.6673909E2,1.9034441E1,3.94699E1,5.698752E0,1.2964735E2,3.0462164E2,1.4972709E3,2.1861265E1,2.7111591E1,1.1918982E2,4.754928E1,2.8108885E0,3.6659008E1,1.7367676E0,3.9619842E0,1.2437704E2,5.2703238E0,2.9635358E2,8.268067E0,1.4940969E3,3.1740007E0],"tree_param":{"num_deleted":"0","num_feature":"17","num_nodes":"31","size_leaf_vector":"1"}},{"base_weights":[1.2013016E-3,-6.694683E-2,1.1777391E0,7.1533346E-1,1.2491693E0,9.662003E-1,-3.7680832E-1,1.0610771E0,1.2633305E0,7.8354806E-1,1.3049567E0,-7.0707396E-2,2.6734734E-1,1.1169257E0,-4.183906E-1,1.2654332E0,4.2006162E-1,4.106537E-2,-7.396215E-2,1.9717637E-2,6.577522E-2,-2.642999E-2,4.229823E-2,-4.549448E-3,5.7797845E-2,-7.933964E-2,3.7138786E-2,5.608322E-2,6.386836E-2,5.161826E-2,-1.5958013E-2],"categories":[],"categories_nodes":[],"categories_segments":[],"categories_sizes":[],"default_left":[0,0,0,0,0,0,0,0,0,0,0,0,0,0,0,0,0,0,0,0,0,0,0,0,0,0,0,0,0,0,0],"id":14,"left_children":[1,-1,3,5,7,9,11,13,15,17,19,-1,21,23,25,27,29,-1,-1,-1,-1,-1,-1,-1,-1,-1,-1,-1,-1,-1,-1],"loss_changes":[6.480372E3,0E0,7.139502E1,8.123996E1,3.7055664E0,1.3847702E1,3.770334E1,1.1943069E1,2.583252E0,1.4769569E1,2.7542114E-1,0E0,1.6705055E1,6.4278717E0,9.019949E0,1.5725098E0,2.9846187E0,0E0,0E0,0E0,0E0,0E0,0E0,0E0,0E0,0E0,0E0,0E0,0E0,0E0,0E0],"parents":[2147483647,0,0,2,2,3,3,4,4,5,5,6,6,7,7,8,8,9,9,10,10,12,12,13,13,14,14,15,15,16,16],"right_children":[2,-1,4,6,8,10,12,14,16,18,20,-1,22,24,26,28,30,-1,-1,-1,-1,-1,-1,-1,-1,-1,-1,-1,-1,-1,-1],"split_conditions":[2E-1,-6.694683E-2,6E-1,2E-1,2E-1,3E0,4E-1,2.8E0,2.25E1,3.8E0,-6.4E0,-7.0707396E-2,1E0,9.915E2,5E0,8E-1,1.1E1,4.106537E-2,-7.396215E-2,1.9717637E-2,6.577522E-2,-2.642999E-2,4.229823E-2,-4.549448E-3,5.7797845E-2,-7.933964E-2,3.7138786E-2,5.608322E-2,6.386836E-2,5.161826E-2,-1.5958013E-2],"split_indices":[14,0,14,13,13,11,14,7,0,7,9,0,11,1,11,14,6,0,0,0,0,0,0,0,0,0,0,0,0,0,0],"split_type":[0,0,0,0,0,0,0,0,0,0,0,0,0,0,0,0,0,0,0,0,0,0,0,0,0,0,0,0,0,0,0],"sum_hessian":[4.108026E3,1.9204247E3,2.1876016E3,2.9418683E2,1.8934147E3,2.393281E2,5.4858746E1,1.3788742E2,1.7555272E3,1.5764264E2,8.1685455E1,2.0557642E1,3.43011E1,1.3310776E2,4.7796607E0,1.7506611E3,4.866027E0,1.5568181E2,1.9608324E0,1.3749145E0,8.031054E1,1.4475296E1,1.9825806E1,4.124791E0,1.2898297E2,2.1997013E0,2.5799594E0,1.4146E2,1.6092012E3,2.4445934E0,2.4214334E0],"tree_param":{"num_deleted":"0","num_feature":"17","num_nodes":"31","size_leaf_vector":"1"}},{"base_weights":[-7.6232078E-3,-6.583871E-2,1.1531023E0,6.443207E-1,1.2316414E0,8.311515E-1,-8.389034E-2,1.2432417E0,9.7145206E-1,9.8378736E-1,4.812489E-1,-6.879265E-2,5.221692E-1,1.0595754E0,1.2556437E0,1.1828607E0,4.7601908E-1,5.374449E-2,3.158073E-2,-7.7040784E-2,2.844638E-2,3.451045E-2,-7.697099E-2,5.4731335E-2,1.5752845E-3,5.5039294E-2,6.342465E-2,6.1526377E-2,-9.462945E-3,-7.164595E-2,3.1111473E-2],"categories":[],"categories_nodes":[],"categories_segments":[],"categories_sizes":[],"default_left":[0,0,0,0,0,0,0,0,0,0,0,0,0,0,0,0,0,0,0,0,0,0,0,0,0,0,0,0,0,0,0],"id":15,"left_children":[1,-1,3,5,7,9,11,13,15,17,19,-1,21,23,25,27,29,-1,-1,-1,-1,-1,-1,-1,-1,-1,-1,-1,-1,-1,-1],"loss_changes":[5.997957E3,0E0,8.280859E1,3.8419167E1,4.259033E0,1.1511902E1,4.649327E1,2.6113281E0,8.013191E0,4.3035126E0,1.3308044E1,0E0,1.5099205E1,4.1405487E0,1.8181152E0,3.9425354E0,8.194017E0,0E0,0E0,0E0,0E0,0E0,0E0,0E0,0E0,0E0,0E0,0E0,0E0,0E0,0E0],"parents":[2147483647,0,0,2,2,3,3,4,4,5,5,6,6,7,7,8,8,9,9,10,10,12,12,13,13,14,14,15,15,16,16],"right_children":[2,-1,4,6,8,10,12,14,16,18,20,-1,22,24,26,28,30,-1,-1,-1,-1,-1,-1,-1,-1,-1,-1,-1,-1,-1,-1],"split_conditions":[2E-1,-6.583871E-2,6E-1,2E-1,1.94E1,7E-1,4E-1,2E-1,-2.4492937E-16,9E1,9.972E2,-6.879265E-2,1.7E0,2.8E0,8E-1,8.8294756E-1,1.57E1,5.374449E-2,3.158073E-2,-7.7040784E-2,2.844638E-2,3.451045E-2,-7.697099E-2,5.4731335E-2,1.5752845E-3,5.5039294E-2,6.342465E-2,6.1526377E-2,-9.462945E-3,-7.164595E-2,3.1111473E-2],"split_indices":[14,0,14,13,0,7,14,13,15,2,1,0,9,7,14,16,3,0,0,0,0,0,0,0,0,0,0,0,0,0,0],"split_type":[0,0,0,0,0,0,0,0,0,0,0,0,0,0,0,0,0,0,0,0,0,0,0,0,0,0,0,0,0,0,0],"sum_hessian":[3.9451555E3,1.853974E3,2.0911816E3,2.8087296E2,1.8103086E3,2.2341258E2,5.746038E1,1.7294264E3,8.088222E1,1.5429416E2,6.911842E1,1.7942162E1,3.951822E1,1.1486028E2,1.614566E3,5.571868E1,2.5163534E1,1.2095305E2,3.3341103E1,2.183714E0,6.693471E1,3.7154934E1,2.3632872E0,1.1101072E2,3.8495612E0,1.3034357E2,1.4842225E3,5.3947758E1,1.7709228E0,1.1641308E0,2.3999405E1],"tree_param":{"num_deleted":"0","num_feature":"17","num_nodes":"31","size_leaf_vector":"1"}},{"base_weights":[-4.179852E-3,-6.4833544E-2,1.1250095E0,6.307045E-1,1.2036395E0,8.421764E-1,-2.3975319E-1,1.0009037E0,1.2201978E0,6.294491E-1,1.2570907E0,-6.752614E-2,3.62902E-1,4.2840767E-1,1.2178657E0,1.0391269E0,1.2352246E0,4.2464696E-2,4.046215E-3,-9.369254E-3,6.512107E-2,-7.49555E-2,2.9455414E-2,3.9498847E-2,-7.838188E-3,6.17011E-2,6.950052E-3,5.5707227E-2,-9.9782296E-2,6.2026422E-2,4.954356E-2],"categories":[],"categories_nodes":[],"categories_segments":[],"categories_sizes":[],"default_left":[0,0,0,0,0,0,0,0,0,0,0,0,0,0,0,0,0,0,0,0,0,0,0,0,0,0,0,0,0,0,0],"id":16,"left_children":[1,-1,3,5,7,9,11,13,15,17,19,-1,21,23,25,27,29,-1,-1,-1,-1,-1,-1,-1,-1,-1,-1,-1,-1,-1,-1],"loss_changes":[5.5828145E3,0E0,7.859204E1,5.2165276E1,4.6879883E0,1.9274261E1,3.7946625E1,1.667891E1,3.131836E0,1.8295704E1,5.2236176E0,0E0,1.6493626E1,8.502498E0,1.5694275E0,3.1968552E1,7.060547E-1,0E0,0E0,0E0,0E0,0E0,0E0,0E0,0E0,0E0,0E0,0E0,0E0,0E0,0E0],"parents":[2147483647,0,0,2,2,3,3,4,4,5,5,6,6,7,7,8,8,9,9,10,10,12,12,13,13,14,14,15,15,16,16],"right_children":[2,-1,4,6,8,10,12,14,16,18,20,-1,22,24,26,28,30,-1,-1,-1,-1,-1,-1,-1,-1,-1,-1,-1,-1,-1,-1],"split_conditions":[2E-1,-6.4833544E-2,6E-1,2E-1,2E-1,3E0,4E-1,1E0,8E-1,8E-1,7.1E1,-6.752614E-2,1.0028E3,2E-1,4.5E0,6E-1,1.83E1,4.2464696E-2,4.046215E-3,-9.369254E-3,6.512107E-2,-7.49555E-2,2.9455414E-2,3.9498847E-2,-7.838188E-3,6.17011E-2,6.950052E-3,5.5707227E-2,-9.9782296E-2,6.2026422E-2,4.954356E-2],"split_indices":[14,0,14,13,13,11,14,11,14,7,2,0,1,10,7,13,3,0,0,0,0,0,0,0,0,0,0,0,0,0,0],"split_type":[0,0,0,0,0,0,0,0,0,0,0,0,0,0,0,0,0,0,0,0,0,0,0,0,0,0,0,0,0,0,0],"sum_hessian":[3.8232422E3,1.7826453E3,2.0405969E3,2.8129086E2,1.7593062E3,2.2633641E2,5.4954437E1,1.3748053E2,1.6218256E3,1.512879E2,7.50485E1,1.88924E1,3.6062035E1,3.8600426E1,9.888011E1,1.2965492E2,1.4921707E3,1.0761021E2,4.3677704E1,2.188161E0,7.2860344E1,3.2968574E0,3.276518E1,2.3642227E1,1.4958198E1,9.727951E1,1.6006007E0,1.2714485E2,2.5100663E0,1.4564797E3,3.569093E1],"tree_param":{"num_deleted":"0","num_feature":"17","num_nodes":"31","size_leaf_vector":"1"}},{"base_weights":[-1.2765038E-2,-9.216163E-1,1.1471084E0,-5.212202E-1,-1.083339E0,6.291246E-2,1.0985491E0,-6.4160836E-1,4.59901E-1,-1.0976926E0,-4.4109944E-2,1.0455577E0,1.2310938E0,-1.4391588E-1,-7.60327E-1,5.525699E-1,-4.886018E-2,-1.1063781E0,2.7413613E-1,5.332152E-2,-3.8319594E-1,8.972874E-1,1.118791E0,6.181832E-2,5.9621995E-3,-5.114163E-2,9.057872E-3,-1.4519303E-3,-4.1059516E-2,-2.292867E-2,3.4422886E-2,-6.088207E-2,-5.149749E-2,4.2745426E-2,-4.6556678E-2,-3.82002E-2,2.9447114E-2,2.4164943E-2,4.6947803E-2,-1.7735628E-2,5.64245E-2],"categories":[],"categories_nodes":[],"categories_segments":[],"categories_sizes":[],"default_left":[0,0,0,0,0,0,0,0,0,0,0,0,0,0,0,0,0,0,0,0,0,0,0,0,0,0,0,0,0,0,0,0,0,0,0,0,0,0,0,0,0],"id":17,"left_children":[1,3,5,7,9,-1,11,13,15,17,19,21,23,25,27,29,-1,31,33,-1,35,37,39,-1,-1,-1,-1,-1,-1,-1,-1,-1,-1,-1,-1,-1,-1,-1,-1,-1,-1],"loss_changes":[3.8836118E3,1.3318689E2,7.3530273E0,7.071475E1,2.1884521E1,0E0,6.6796875E0,3.129155E1,9.295263E0,1.7583862E1,8.3442745E0,7.8668823E0,1.7187195E0,2.9781988E1,1.9064224E1,8.889469E0,0E0,1.1002808E1,7.7441063E0,0E0,6.698825E0,4.292618E0,8.157715E0,0E0,0E0,0E0,0E0,0E0,0E0,0E0,0E0,0E0,0E0,0E0,0E0,0E0,0E0,0E0,0E0,0E0,0E0],"parents":[2147483647,0,0,1,1,2,2,3,3,4,4,6,6,7,7,8,8,9,9,10,10,11,11,12,12,13,13,14,14,15,15,17,17,18,18,20,20,21,21,22,22],"right_children":[2,4,6,8,10,-1,12,14,16,18,20,22,24,26,28,30,-1,32,34,-1,36,38,40,-1,-1,-1,-1,-1,-1,-1,-1,-1,-1,-1,-1,-1,-1,-1,-1,-1,-1],"split_conditions":[2E-1,1.0107E3,-1.9E0,1.2E1,2E1,6.291246E-2,3E0,3E0,2.32E1,6.5E0,-4.8E0,4E-1,2.07E1,-1E0,-8.480481E-1,1E1,-4.886018E-2,1.6E0,-1.5643446E-1,5.332152E-2,9E-1,2E0,-1.4E1,6.181832E-2,5.9621995E-3,-5.114163E-2,9.057872E-3,-1.4519303E-3,-4.1059516E-2,-2.292867E-2,3.4422886E-2,-6.088207E-2,-5.149749E-2,4.2745426E-2,-4.6556678E-2,-3.82002E-2,2.9447114E-2,2.4164943E-2,4.6947803E-2,-1.7735628E-2,5.64245E-2],"split_indices":[13,1,7,8,8,0,7,5,0,12,9,13,0,8,15,6,0,4,15,0,12,5,8,0,0,0,0,0,0,0,0,0,0,0,0,0,0,0,0,0,0],"split_type":[0,0,0,0,0,0,0,0,0,0,0,0,0,0,0,0,0,0,0,0,0,0,0,0,0,0,0,0,0,0,0,0,0,0,0,0,0,0,0,0,0],"sum_hessian":[3.682105E3,2.0645637E3,1.6175413E3,5.9519403E2,1.4693698E3,4.842642E2,1.133277E3,5.3045123E2,6.474279E1,1.4492963E3,2.0073503E1,8.159485E2,3.1732855E2,1.0258912E2,4.2786215E2,6.1399086E1,3.343703E0,1.4403702E3,8.925998E0,4.193701E0,1.5879803E1,2.7414932E2,5.4179913E2,3.1571936E2,1.609186E0,2.711918E1,7.546994E1,3.298737E1,3.9487476E2,6.992575E0,5.4406513E1,5.8044055E2,8.599297E2,6.2196717E0,2.706326E0,1.156402E1,4.315783E0,2.6222307E1,2.47927E2,3.3103392E0,5.3848883E2],"tree_param":{"num_deleted":"0","num_feature":"17","num_nodes":"41","size_leaf_vector":"1"}},{"base_weights":[-1.8980396E-3,5.269531E-1,-5.123996E-1,1.1347317E0,3.535914E-1,-6.481514E-1,9.862797E-1,-4.4036794E-2,1.1441622E0,4.9213237E-1,-4.4459245E-1,-2.8570226E-1,-8.618193E-1,-2.841433E-1,1.0689756E0,1.1506935E0,-3.3266537E-2,3.7007788E-1,9.682326E-1,-1.1061054E0,4.3831218E-2,-8.9342034E-1,1.6059239E-1,7.971702E-1,-8.791229E-1,4.76286E-1,-5.396622E-2,6.501847E-1,1.1853245E0,5.9180837E-2,4.8882943E-2,2.6332235E-3,2.8022189E-2,2.9073382E-2,5.3811938E-2,-5.977676E-2,4.5779742E-2,3.534713E-2,-2.5243822E-2,-4.777816E-2,2.940306E-2,1.8274441E-2,-4.0582445E-2,-3.6780708E-2,5.3683568E-2,-5.6157608E-2,-3.856348E-2,3.8797244E-2,-8.18199E-3,-2.1461548E-2,4.5222785E-2,6.0129173E-2,1.787988E-2],"categories":[],"categories_nodes":[],"categories_segments":[],"categories_sizes":[],"default_left":[0,0,0,0,0,0,0,0,0,0,0,0,0,0,0,0,0,0,0,0,0,0,0,0,0,0,0,0,0,0,0,0,0,0,0,0,0,0,0,0,0,0,0,0,0,0,0,0,0,0,0,0,0],"id":18,"left_children":[1,3,5,7,9,11,13,-1,15,17,19,21,23,25,27,29,-1,31,33,35,37,39,41,43,45,47,-1,49,51,-1,-1,-1,-1,-1,-1,-1,-1,-1,-1,-1,-1,-1,-1,-1,-1,-1,-1,-1,-1,-1,-1,-1,-1],"loss_changes":[9.821347E2,1.8786545E2,3.772259E2,8.536316E0,1.5411438E2,1.3124408E2,1.6497238E1,0E0,5.430237E0,6.858017E1,6.6722E1,1.7133804E2,3.1350098E1,6.6879115E0,6.2910156E0,1.0853271E0,0E0,5.712529E1,9.460587E0,1.694825E1,4.3899597E1,2.518129E1,7.296431E1,5.683038E0,2.695691E1,1.260836E0,0E0,9.6444645E0,1.1728668E0,0E0,0E0,0E0,0E0,0E0,0E0,0E0,0E0,0E0,0E0,0E0,0E0,0E0,0E0,0E0,0E0,0E0,0E0,0E0,0E0,0E0,0E0,0E0,0E0],"parents":[2147483647,0,0,1,1,2,2,3,3,4,4,5,5,6,6,8,8,9,9,10,10,11,11,12,12,13,13,14,14,15,15,17,17,18,18,19,19,20,20,21,21,22,22,23,23,24,24,25,25,27,27,28,28],"right_children":[2,4,6,8,10,12,14,-1,16,18,20,22,24,26,28,30,-1,32,34,36,38,40,42,44,46,48,-1,50,52,-1,-1,-1,-1,-1,-1,-1,-1,-1,-1,-1,-1,-1,-1,-1,-1,-1,-1,-1,-1,-1,-1,-1,-1],"split_conditions":[1.0115E3,-2.5E0,3.5E0,-1.9E1,1.79E1,1.0164E3,5.9E0,-4.4036794E-2,1.7E1,9E-1,1.53E1,1.6E0,-3.5E0,1.0134E3,1.6E0,-3.1E0,-3.3266537E-2,8E-1,2E0,2.6E0,1.2246469E-16,8E0,1.95E1,3.1E0,1.6E0,3.7E0,-5.396622E-2,5.1E0,1.7E1,5.9180837E-2,4.8882943E-2,2.6332235E-3,2.8022189E-2,2.9073382E-2,5.3811938E-2,-5.977676E-2,4.5779742E-2,3.534713E-2,-2.5243822E-2,-4.777816E-2,2.940306E-2,1.8274441E-2,-4.0582445E-2,-3.6780708E-2,5.3683568E-2,-5.6157608E-2,-3.856348E-2,3.8797244E-2,-8.18199E-3,-2.1461548E-2,4.5222785E-2,6.0129173E-2,1.787988E-2],"split_indices":[1,7,7,8,0,1,0,0,11,10,3,4,7,1,4,7,0,4,5,7,15,11,0,3,4,0,0,7,8,0,0,0,0,0,0,0,0,0,0,0,0,0,0,0,0,0,0,0,0,0,0,0,0],"split_type":[0,0,0,0,0,0,0,0,0,0,0,0,0,0,0,0,0,0,0,0,0,0,0,0,0,0,0,0,0,0,0,0,0,0,0,0,0,0,0,0,0,0,0,0,0,0,0,0,0,0,0,0,0],"sum_hessian":[3.6358145E3,1.7857965E3,1.8500178E3,3.9509845E2,1.3906981E3,1.6968802E3,1.5313753E2,1.4097917E0,3.9368866E2,1.1853416E3,2.0535655E2,6.301987E2,1.0666815E3,9.210119E0,1.439274E2,3.9263553E2,1.0531416E0,9.4488525E2,2.404563E2,8.668591E1,1.1867064E2,2.6641727E2,3.6378146E2,1.0545633E1,1.056136E3,4.9129314E0,4.2971873E0,3.272479E1,1.1120262E2,3.2496442E2,6.76711E1,3.54715E2,5.901702E2,5.3883984E1,1.8657231E2,8.340514E1,3.2807708E0,5.3603096E1,6.506754E1,2.5603262E2,1.0384654E1,3.0097592E2,6.2805542E1,1.3578653E0,9.187768E0,3.208243E2,7.3531165E2,3.2013001E0,1.7116313E0,6.1078854E0,2.6616903E1,1.0848766E2,2.7149565E0],"tree_param":{"num_deleted":"0","num_feature":"17","num_nodes":"53","size_leaf_vector":"1"}},{"base_weights":[3.0744027E-3,-6.287278E-2,1.091695E0,6.5413326E-1,1.1631954E0,8.555568E-1,-1.9769283E-1,9.6861225E-1,1.1786301E0,3.12486E-1,9.817064E-1,-6.653979E-2,3.9853045E-1,4.0482605E-1,1.2006385E0,1.1810042E0,3.1609055E-1,2.198481E-2,-7.82351E-2,4.1985016E-2,6.14393E-2,-7.843297E-2,3.346328E-2,2.7219567E-2,-7.205704E-2,6.091878E-2,7.421441E-3,5.2506477E-2,5.9709728E-2,4.6315234E-2,-1.792556E-2],"categories":[],"categories_nodes":[],"categories_segments":[],"categories_sizes":[],"default_left":[0,0,0,0,0,0,0,0,0,0,0,0,0,0,0,0,0,0,0,0,0,0,0,0,0,0,0,0,0,0,0],"id":19,"left_children":[1,-1,3,5,7,9,11,13,15,17,19,-1,21,23,25,27,29,-1,-1,-1,-1,-1,-1,-1,-1,-1,-1,-1,-1,-1,-1],"loss_changes":[4.892065E3,0E0,5.9087646E1,4.666147E1,3.7927246E0,1.471962E1,3.608796E1,1.6043388E1,2.7346191E0,1.0911501E1,5.19693E0,0E0,1.9826672E1,1.066471E1,1.4803467E0,1.3579102E0,2.6090167E0,0E0,0E0,0E0,0E0,0E0,0E0,0E0,0E0,0E0,0E0,0E0,0E0,0E0,0E0],"parents":[2147483647,0,0,2,2,3,3,4,4,5,5,6,6,7,7,8,8,9,9,10,10,12,12,13,13,14,14,15,15,16,16],"right_children":[2,-1,4,6,8,10,12,14,16,18,20,-1,22,24,26,28,30,-1,-1,-1,-1,-1,-1,-1,-1,-1,-1,-1,-1,-1,-1],"split_conditions":[2E-1,-6.287278E-2,6E-1,2E-1,2E-1,-2E0,4E-1,1E0,2.25E1,-3E0,3E0,-6.653979E-2,1.0034E3,2.8E0,3.9E0,3E0,4E-1,2.198481E-2,-7.82351E-2,4.1985016E-2,6.14393E-2,-7.843297E-2,3.346328E-2,2.7219567E-2,-7.205704E-2,6.091878E-2,7.421441E-3,5.2506477E-2,5.9709728E-2,4.6315234E-2,-1.792556E-2],"split_indices":[14,0,14,13,13,8,14,11,0,8,11,0,1,7,7,6,13,0,0,0,0,0,0,0,0,0,0,0,0,0,0],"split_type":[0,0,0,0,0,0,0,0,0,0,0,0,0,0,0,0,0,0,0,0,0,0,0,0,0,0,0,0,0,0,0],"sum_hessian":[3.563024E3,1.6510701E3,1.9119539E3,2.6996942E2,1.6419844E3,2.1833691E2,5.163252E1,1.2535896E2,1.5166255E3,4.1812458E1,1.7652444E2,1.7376675E1,3.4255844E1,3.7349785E1,8.800918E1,1.5120942E3,4.531198E0,3.9875977E1,1.9364814E0,1.148908E2,6.163365E1,3.5641668E0,3.0691677E1,3.5379955E1,1.9698287E0,8.6394905E1,1.6142735E0,1.4582542E2,1.3662688E3,2.183232E0,2.3479662E0],"tree_param":{"num_deleted":"0","num_feature":"17","num_nodes":"31","size_leaf_vector":"1"}},{"base_weights":[-1.35118125E-5,-6.2087256E-2,1.055714E0,5.8019924E-1,1.1343329E0,7.865673E-1,-3.0154616E-1,9.022984E-1,1.153271E0,4.8510578E-1,1.1673003E0,-6.555394E-2,3.0737996E-1,3.3594856E-1,1.1360769E0,1.0313503E0,1.1767927E0,3.3913374E-2,-1.11170625E-2,2.0521866E-2,5.9658792E-2,2.925162E-2,-6.633595E-2,3.307243E-2,-1.9832619E-2,5.7687756E-2,4.6984535E-3,5.502305E-2,-5.8814075E-2,5.918304E-2,4.5979276E-2],"categories":[],"categories_nodes":[],"categories_segments":[],"categories_sizes":[],"default_left":[0,0,0,0,0,0,0,0,0,0,0,0,0,0,0,0,0,0,0,0,0,0,0,0,0,0,0,0,0,0,0],"id":20,"left_children":[1,-1,3,5,7,9,11,13,15,17,19,-1,21,23,25,27,29,-1,-1,-1,-1,-1,-1,-1,-1,-1,-1,-1,-1,-1,-1],"loss_changes":[4.478638E3,0E0,6.8371826E1,4.827958E1,5.9176025E0,2.4021713E1,3.1629047E1,1.6046822E1,2.9744873E0,1.6722572E1,1.350296E0,0E0,1.5519468E1,9.246083E0,1.5018692E0,3.8563385E1,1.0614014E0,0E0,0E0,0E0,0E0,0E0,0E0,0E0,0E0,0E0,0E0,0E0,0E0,0E0,0E0],"parents":[2147483647,0,0,2,2,3,3,4,4,5,5,6,6,7,7,8,8,9,9,10,10,12,12,13,13,14,14,15,15,16,16],"right_children":[2,-1,4,6,8,10,12,14,16,18,20,-1,22,24,26,28,30,-1,-1,-1,-1,-1,-1,-1,-1,-1,-1,-1,-1,-1,-1],"split_conditions":[2E-1,-6.2087256E-2,6E-1,2E-1,2E-1,2E0,4E-1,1E0,1E0,1.6E1,7E1,-6.555394E-2,4E-1,1.5E1,4.5E0,6E-1,1.8E1,3.3913374E-2,-1.11170625E-2,2.0521866E-2,5.9658792E-2,2.925162E-2,-6.633595E-2,3.307243E-2,-1.9832619E-2,5.7687756E-2,4.6984535E-3,5.502305E-2,-5.8814075E-2,5.918304E-2,4.5979276E-2],"split_indices":[14,0,14,13,13,11,14,11,14,6,2,0,13,6,7,13,8,0,0,0,0,0,0,0,0,0,0,0,0,0,0],"split_type":[0,0,0,0,0,0,0,0,0,0,0,0,0,0,0,0,0,0,0,0,0,0,0,0,0,0,0,0,0,0,0],"sum_hessian":[3.414382E3,1.5688947E3,1.8454875E3,2.630213E2,1.5824662E3,2.1322502E2,4.979629E1,1.2308183E2,1.4593844E3,1.20270164E2,9.295486E1,1.830143E1,3.1494862E1,3.667364E1,8.640819E1,2.4327242E2,1.2161119E3,9.450713E1,2.5763025E1,3.6302826E0,8.932458E1,2.7469463E1,4.0253973E0,2.5459099E1,1.1214543E1,8.486148E1,1.5467097E0,2.3637415E2,6.898271E0,1.1809752E3,3.5136787E1],"tree_param":{"num_deleted":"0","num_feature":"17","num_nodes":"31","size_leaf_vector":"1"}},{"base_weights":[-1.6841399E-2,-6.1350126E-2,1.0328187E0,5.3999907E-1,1.1147218E0,1.9339173E-1,8.6306095E-1,9.278448E-1,1.1355846E0,4.504776E-1,-3.454701E-1,4.0127146E-1,9.70034E-1,-6.6861965E-2,9.705757E-1,1.0627934E0,1.1642977E0,-5.5883408E-2,2.9045006E-2,-6.0558E-2,2.9854747E-5,3.0598948E-2,-8.070854E-2,4.9753536E-2,-1.4868125E-2,3.925997E-2,-8.790523E-2,4.0430356E-2,5.9528638E-2,5.0109833E-2,5.8575835E-2,4.2155307E-2,5.8637995E-2],"categories":[],"categories_nodes":[],"categories_segments":[],"categories_sizes":[],"default_left":[0,0,0,0,0,0,0,0,0,0,0,0,0,0,0,0,0,0,0,0,0,0,0,0,0,0,0,0,0,0,0,0,0],"id":21,"left_children":[1,-1,3,5,7,9,11,13,15,17,19,21,23,25,27,29,31,-1,-1,-1,-1,-1,-1,-1,-1,-1,-1,-1,-1,-1,-1,-1,-1],"loss_changes":[4.195296E3,0E0,7.0786865E1,2.8273537E1,4.855713E0,1.730855E1,6.090431E0,6.7670746E0,1.6029053E0,1.788211E1,1.2151442E1,1.2188929E1,3.6528854E0,1.2087771E1,4.4267426E0,1.4341736E0,1.6315918E0,0E0,0E0,0E0,0E0,0E0,0E0,0E0,0E0,0E0,0E0,0E0,0E0,0E0,0E0,0E0,0E0],"parents":[2147483647,0,0,2,2,3,3,4,4,5,5,6,6,7,7,8,8,9,9,10,10,11,11,12,12,13,13,14,14,15,15,16,16],"right_children":[2,-1,4,6,8,10,12,14,16,18,20,22,24,26,28,30,32,-1,-1,-1,-1,-1,-1,-1,-1,-1,-1,-1,-1,-1,-1,-1,-1],"split_conditions":[2E-1,-6.1350126E-2,6E-1,1E0,8E-1,1.21E1,-6.819984E-1,7.4E1,0E0,2.3E0,5E0,2.0791169E-1,1.74E1,0E0,2E0,9E-1,1E0,-5.5883408E-2,2.9045006E-2,-6.0558E-2,2.9854747E-5,3.0598948E-2,-8.070854E-2,4.9753536E-2,-1.4868125E-2,3.925997E-2,-8.790523E-2,4.0430356E-2,5.9528638E-2,5.0109833E-2,5.8575835E-2,4.2155307E-2,5.8637995E-2],"split_indices":[14,0,14,11,14,0,15,2,11,3,5,16,3,12,11,10,6,0,0,0,0,0,0,0,0,0,0,0,0,0,0,0,0],"split_type":[0,0,0,0,0,0,0,0,0,0,0,0,0,0,0,0,0,0,0,0,0,0,0,0,0,0,0,0,0,0,0,0,0],"sum_hessian":[3.3007144E3,1.5330641E3,1.7676501E3,2.5298785E2,1.5146624E3,1.2281762E2,1.3017023E2,1.5668098E2,1.3579813E3,8.325938E1,3.9558243E1,2.5376064E1,1.0479417E2,6.430252E0,1.5025073E2,3.948925E2,9.6308887E2,5.81175E0,7.7447624E1,1.0583571E1,2.897467E1,2.3604637E1,1.7714274E0,1.0297483E2,1.8193388E0,4.6322265E0,1.7980258E0,8.9231384E1,6.1019352E1,2.6012833E2,1.3476416E2,2.7305687E1,9.3578314E2],"tree_param":{"num_deleted":"0","num_feature":"17","num_nodes":"33","size_leaf_vector":"1"}},{"base_weights":[-4.70143E-3,-6.0679268E-2,1.0100555E0,5.2896166E-1,1.095088E0,2.2738194E-1,1.0178572E0,9.9090576E-1,1.1358621E0,-8.394634E-2,2.7856836E-1,1.1533977E0,7.080211E-1,5.619105E-1,1.0322006E0,1.1448784E0,8.3199984E-1,8.407847E-3,5.265394E-2,1.9249924E-3,5.9370447E-2,-2.596719E-2,4.7415666E-2,3.629943E-2,-2.3694364E-2,5.7866663E-2,4.9117308E-2,4.469935E-2,5.7602793E-2,-4.9901072E-2,4.930682E-2],"categories":[],"categories_nodes":[],"categories_segments":[],"categories_sizes":[],"default_left":[0,0,0,0,0,0,0,0,0,0,0,0,0,0,0,0,0,0,0,0,0,0,0,0,0,0,0,0,0,0,0],"id":22,"left_children":[1,-1,3,5,7,9,11,13,15,-1,17,19,21,23,25,27,29,-1,-1,-1,-1,-1,-1,-1,-1,-1,-1,-1,-1,-1,-1],"loss_changes":[3.941328E3,0E0,7.087549E1,3.8735497E1,5.1757812E0,1.654309E1,3.4057007E0,6.9506836E0,1.949585E0,0E0,1.3616054E1,2.546257E0,1.028042E1,7.060727E0,1.2746887E0,8.178711E-1,1.0626987E1,0E0,0E0,0E0,0E0,0E0,0E0,0E0,0E0,0E0,0E0,0E0,0E0,0E0,0E0],"parents":[2147483647,0,0,2,2,3,3,4,4,5,5,6,6,7,7,8,8,10,10,11,11,12,12,13,13,14,14,15,15,16,16],"right_children":[2,-1,4,6,8,10,12,14,16,-1,18,20,22,24,26,28,30,-1,-1,-1,-1,-1,-1,-1,-1,-1,-1,-1,-1,-1,-1],"split_conditions":[2E-1,-6.0679268E-2,6E-1,2E0,0E0,4.8E0,6E-1,8E-1,1.97E1,-8.394634E-2,4E0,7E1,3E0,8.746197E-1,-1.9E0,1E0,4E0,8.407847E-3,5.265394E-2,1.9249924E-3,5.9370447E-2,-2.596719E-2,4.7415666E-2,3.629943E-2,-2.3694364E-2,5.7866663E-2,4.9117308E-2,4.469935E-2,5.7602793E-2,-4.9901072E-2,4.930682E-2],"split_indices":[14,0,14,11,11,0,7,14,0,0,9,2,11,16,7,6,6,0,0,0,0,0,0,0,0,0,0,0,0,0,0],"split_type":[0,0,0,0,0,0,0,0,0,0,0,0,0,0,0,0,0,0,0,0,0,0,0,0,0,0,0,0,0,0,0],"sum_hessian":[3.210891E3,1.4651986E3,1.7456926E3,2.6328842E2,1.4824042E3,1.6374557E2,9.9542854E1,4.240958E2,1.0583083E3,3.4502301E0,1.6029533E2,6.735516E1,3.2187695E1,3.8521187E1,3.8557462E2,1.0251229E3,3.318546E1,1.413606E2,1.8934744E1,2.0570345E0,6.529813E1,5.079797E0,2.7107897E1,3.3511776E1,5.0094113E0,1.0352243E2,2.820522E2,3.200255E1,9.9312036E2,2.1526551E0,3.1032803E1],"tree_param":{"num_deleted":"0","num_feature":"17","num_nodes":"31","size_leaf_vector":"1"}},{"base_weights":[1.0075468E-2,-6.0046323E-2,1.0068454E0,4.6901807E-1,1.0641673E0,6.935724E-1,-6.481461E-2,8.513766E-1,1.10389E0,4.7243425E-1,1.0834569E0,9.5909035E-1,-6.4596117E-1,8.3039576E-1,1.1219237E0,-7.650636E-2,2.676785E-2,-5.156823E-3,5.5822697E-2,3.6655422E-2,5.621053E-2,-1.1031333E-1,-2.8668006E-3,2.9303787E-2,5.8499116E-2,5.640244E-2,2.2049272E-2],"categories":[],"categories_nodes":[],"categories_segments":[],"categories_sizes":[],"default_left":[0,0,0,0,0,0,0,0,0,0,0,0,0,0,0,0,0,0,0,0,0,0,0,0,0,0,0],"id":23,"left_children":[1,-1,3,5,7,9,-1,11,13,15,17,19,21,23,25,-1,-1,-1,-1,-1,-1,-1,-1,-1,-1,-1,-1],"loss_changes":[3.7560303E3,0E0,5.2119873E1,6.677312E1,1.209082E1,1.2254997E1,0E0,4.043741E1,5.4589844E0,1.2948336E1,2.1831741E0,7.7847595E0,1.5638908E1,6.283703E0,4.560547E0,0E0,0E0,0E0,0E0,0E0,0E0,0E0,0E0,0E0,0E0,0E0,0E0],"parents":[2147483647,0,0,2,2,3,3,4,4,5,5,7,7,8,8,9,9,10,10,11,11,12,12,13,13,14,14],"right_children":[2,-1,4,6,8,10,-1,12,14,16,18,20,22,24,26,-1,-1,-1,-1,-1,-1,-1,-1,-1,-1,-1,-1],"split_conditions":[2E-1,-6.0046323E-2,4E-1,2E-1,8E-1,2E0,-6.481461E-2,4E-1,2E-1,4.8E0,-6.4E0,1E0,3E0,4E0,2.13E1,-7.650636E-2,2.676785E-2,-5.156823E-3,5.5822697E-2,3.6655422E-2,5.621053E-2,-1.1031333E-1,-2.8668006E-3,2.9303787E-2,5.8499116E-2,5.640244E-2,2.2049272E-2],"split_indices":[14,0,14,13,14,11,0,13,13,0,9,11,5,11,0,0,0,0,0,0,0,0,0,0,0,0,0],"split_type":[0,0,0,0,0,0,0,0,0,0,0,0,0,0,0,0,0,0,0,0,0,0,0,0,0,0,0],"sum_hessian":[3.1096382E3,1.4038541E3,1.705784E3,1.6517738E2,1.5406067E3,1.4707587E2,1.8101513E1,2.4588068E2,1.294726E3,9.5258194E1,5.181767E1,2.2971516E2,1.6165512E1,8.3001305E1,1.2117247E3,2.191594E0,9.3066605E1,1.3444617E0,5.047321E1,9.92806E1,1.3043457E2,3.6752167E0,1.2490294E1,4.985693E1,3.3144375E1,1.2002717E3,1.1452991E1],"tree_param":{"num_deleted":"0","num_feature":"17","num_nodes":"27","size_leaf_vector":"1"}},{"base_weights":[-1.495744E-4,-5.9454262E-2,9.8574287E-1,5.7151663E-1,1.0641755E0,7.480314E-1,-1.3461553E-1,8.276611E-1,1.0857388E0,5.2863955E-1,1.0832684E0,-6.368006E-2,4.669178E-1,2.8709218E-1,1.0801466E0,1.0958455E0,7.669581E-1,3.7531607E-2,2.5462752E-4,4.085413E-3,5.537642E-2,3.137905E-2,-5.8169432E-2,3.0173598E-2,-4.9020115E-2,5.4973077E-2,3.5929048E-4,5.1474925E-2,5.6847747E-2,4.9995616E-2,1.4627846E-2],"categories":[],"categories_nodes":[],"categories_segments":[],"categories_sizes":[],"default_left":[0,0,0,0,0,0,0,0,0,0,0,0,0,0,0,0,0,0,0,0,0,0,0,0,0,0,0,0,0,0,0],"id":24,"left_children":[1,-1,3,5,7,9,11,13,15,17,19,-1,21,23,25,27,29,-1,-1,-1,-1,-1,-1,-1,-1,-1,-1,-1,-1,-1,-1],"loss_changes":[3.5153267E3,0E0,5.2657227E1,3.2903282E1,6.1259766E0,1.4923599E1,3.7234257E1,1.5970932E1,3.2158203E0,1.5024422E1,1.9114304E0,0E0,1.0088165E1,1.636722E1,1.6696777E0,2.1516113E0,4.3514805E0,0E0,0E0,0E0,0E0,0E0,0E0,0E0,0E0,0E0,0E0,0E0,0E0,0E0,0E0],"parents":[2147483647,0,0,2,2,3,3,4,4,5,5,6,6,7,7,8,8,9,9,10,10,12,12,13,13,14,14,15,15,16,16],"right_children":[2,-1,4,6,8,10,12,14,16,18,20,-1,22,24,26,28,30,-1,-1,-1,-1,-1,-1,-1,-1,-1,-1,-1,-1,-1,-1],"split_conditions":[2E-1,-5.9454262E-2,6E-1,2E-1,2E-1,2E0,4E-1,1E0,1.98E1,1.25E1,6.3E1,-6.368006E-2,4E-1,5E-1,4.5E0,1.6E0,-2.4492937E-16,3.7531607E-2,2.5462752E-4,4.085413E-3,5.537642E-2,3.137905E-2,-5.8169432E-2,3.0173598E-2,-4.9020115E-2,5.4973077E-2,3.5929048E-4,5.1474925E-2,5.6847747E-2,4.9995616E-2,1.4627846E-2],"split_indices":[14,0,14,13,13,11,14,11,0,0,2,0,13,10,7,14,15,0,0,0,0,0,0,0,0,0,0,0,0,0,0],"split_type":[0,0,0,0,0,0,0,0,0,0,0,0,0,0,0,0,0,0,0,0,0,0,0,0,0,0,0,0,0,0,0],"sum_hessian":[2.9970093E3,1.35851E3,1.6384994E3,2.6217282E2,1.3763265E3,2.0969513E2,5.24777E1,1.1828739E2,1.2580391E3,1.2830463E2,8.139051E1,1.7750463E1,3.4727234E1,3.8339645E1,7.994775E1,1.2170171E3,4.102203E1,8.979592E1,3.85087E1,2.02814E0,7.9362366E1,3.2171825E1,2.5554109E0,3.1100517E1,7.2391257E0,7.850975E1,1.4379991E0,4.7555518E2,7.414619E2,2.6769274E1,1.4252758E1],"tree_param":{"num_deleted":"0","num_feature":"17","num_nodes":"31","size_leaf_vector":"1"}},{"base_weights":[5.643479E-3,-5.8909144E-2,9.727448E-1,5.48871E-1,1.0517968E0,7.214789E-1,-2.0114745E-1,8.0524987E-1,1.0729598E0,5.3948575E-1,1.1268361E0,-6.2297285E-2,3.3438078E-1,3.521678E-1,1.0230021E0,8.836199E-1,1.091266E0,3.6161914E-2,7.045507E-3,2.3361966E-2,5.8477517E-2,2.9488102E-2,-6.208781E-2,2.3661999E-2,-8.21422E-2,5.2157868E-2,3.4872215E-4,4.7835883E-2,-9.242342E-2,4.7814194E-3,5.464202E-2],"categories":[],"categories_nodes":[],"categories_segments":[],"categories_sizes":[],"default_left":[0,0,0,0,0,0,0,0,0,0,0,0,0,0,0,0,0,0,0,0,0,0,0,0,0,0,0,0,0,0,0],"id":25,"left_children":[1,-1,3,5,7,9,11,13,15,17,19,-1,21,23,25,27,29,-1,-1,-1,-1,-1,-1,-1,-1,-1,-1,-1,-1,-1,-1],"loss_changes":[3.3026985E3,0E0,5.2623535E1,3.2723976E1,6.1121826E0,1.4500008E1,2.7196405E1,1.046315E1,3.293335E0,1.0389938E1,1.2154694E0,0E0,1.3786504E1,9.747055E0,1.4993057E0,2.4445114E1,1.6444092E0,0E0,0E0,0E0,0E0,0E0,0E0,0E0,0E0,0E0,0E0,0E0,0E0,0E0,0E0],"parents":[2147483647,0,0,2,2,3,3,4,4,5,5,6,6,7,7,8,8,9,9,10,10,12,12,13,13,14,14,15,15,16,16],"right_children":[2,-1,4,6,8,10,12,14,16,18,20,-1,22,24,26,28,30,-1,-1,-1,-1,-1,-1,-1,-1,-1,-1,-1,-1,-1,-1],"split_conditions":[2E-1,-5.8909144E-2,6E-1,2E-1,2E-1,3E0,4E-1,1E0,8E-1,8E-1,7.1E1,-6.2297285E-2,4E-1,2.1E1,3.9E0,6E-1,-2.2E1,3.6161914E-2,7.045507E-3,2.3361966E-2,5.8477517E-2,2.9488102E-2,-6.208781E-2,2.3661999E-2,-8.21422E-2,5.2157868E-2,3.4872215E-4,4.7835883E-2,-9.242342E-2,4.7814194E-3,5.464202E-2],"split_indices":[14,0,14,13,13,11,14,11,14,7,2,0,13,6,7,13,11,0,0,0,0,0,0,0,0,0,0,0,0,0,0],"split_type":[0,0,0,0,0,0,0,0,0,0,0,0,0,0,0,0,0,0,0,0,0,0,0,0,0,0,0,0,0,0,0],"sum_hessian":[2.882754E3,1.2960474E3,1.5867067E3,2.5065363E2,1.336053E3,2.0379147E2,4.6862156E1,1.08704544E2,1.2273485E3,1.4225443E2,6.153705E1,1.543073E1,3.1431429E1,3.6134968E1,7.256957E1,1.1254821E2,1.1148003E3,9.6808784E1,4.544564E1,4.4687653E0,5.7068283E1,2.7587282E1,3.8441455E0,3.4786644E1,1.3483243E0,7.113181E1,1.437764E0,1.1024831E2,2.2999E0,1.85742E0,1.1129429E3],"tree_param":{"num_deleted":"0","num_feature":"17","num_nodes":"31","size_leaf_vector":"1"}},{"base_weights":[1.1640784E-2,-7.8527427E-1,1.0091356E0,-1.0454937E0,-5.1701325E-1,8.924798E-1,1.0550233E0,-1.081616E0,2.9997638E-1,-6.785553E-1,5.6448275E-1,5.6510277E-2,8.2550627E-1,1.0623391E0,5.580902E-1,6.0227595E-2,-1.0898027E0,-2.8525135E-1,7.252617E-1,-7.9764575E-1,-1.6751772E-1,-5.2705866E-1,6.5039754E-1,6.8968654E-1,1.0243682E0,7.6631397E-1,1.0721045E0,8.877354E-1,-1.715906E-1,5.1669117E-2,-4.71321E-2,-5.464487E-2,1.7490994E-2,-4.971761E-2,4.870272E-2,4.716346E-2,6.6071055E-3,-4.833497E-2,-2.7291823E-2,5.945261E-3,-3.226702E-2,-4.8914783E-2,3.3316616E-2,3.557389E-2,-1.9205166E-2,3.0540708E-2,5.3507376E-2,2.4646444E-2,5.2399486E-2,4.2769298E-2,-2.5493965E-2,5.020042E-2,5.5055525E-2,5.167503E-2,1.6734792E-2,-5.6175947E-2,2.6446072E-2],"categories":[],"categories_nodes":[],"categories_segments":[],"categories_sizes":[],"default_left":[0,0,0,0,0,0,0,0,0,0,0,0,0,0,0,0,0,0,0,0,0,0,0,0,0,0,0,0,0,0,0,0,0,0,0,0,0,0,0,0,0,0,0,0,0,0,0,0,0,0,0,0,0,0,0,0,0],"id":26,"left_children":[1,3,5,7,9,11,13,15,17,19,21,-1,23,25,27,29,31,33,35,37,39,41,43,45,47,49,51,53,55,-1,-1,-1,-1,-1,-1,-1,-1,-1,-1,-1,-1,-1,-1,-1,-1,-1,-1,-1,-1,-1,-1,-1,-1,-1,-1,-1,-1],"loss_changes":[2.2100818E3,1.0734778E2,5.6678467E0,3.8405945E1,1.3368169E2,4.7201843E0,2.6087646E0,7.2006836E0,5.5005007E0,4.0294403E1,9.692743E0,0E0,6.875946E0,1.6841431E0,3.7323918E0,7.201743E0,3.7589111E0,9.6027355E0,1.5045929E0,2.2394684E1,1.7432049E1,4.866847E0,6.141758E0,4.4437103E0,8.877182E-1,3.9812298E0,5.46875E-1,4.9361515E-1,4.2415795E0,0E0,0E0,0E0,0E0,0E0,0E0,0E0,0E0,0E0,0E0,0E0,0E0,0E0,0E0,0E0,0E0,0E0,0E0,0E0,0E0,0E0,0E0,0E0,0E0,0E0,0E0,0E0,0E0],"parents":[2147483647,0,0,1,1,2,2,3,3,4,4,5,5,6,6,7,7,8,8,9,9,10,10,12,12,13,13,14,14,15,15,16,16,17,17,18,18,19,19,20,20,21,21,22,22,23,23,24,24,25,25,26,26,27,27,28,28],"right_children":[2,4,6,8,10,12,14,16,18,20,22,-1,24,26,28,30,32,34,36,38,40,42,44,46,48,50,52,54,56,-1,-1,-1,-1,-1,-1,-1,-1,-1,-1,-1,-1,-1,-1,-1,-1,-1,-1,-1,-1,-1,-1,-1,-1,-1,-1,-1,-1],"split_conditions":[2E-1,7.8E1,0E0,1E1,4E0,-2.5E0,2.4E1,-2E0,7E1,8E0,2.3E0,5.6510277E-2,9E-1,1E0,7E-1,0E0,4E0,1.91E1,5E-1,8.8E1,1.7452406E-2,1.5E1,2.2E0,2.7E0,-9.986295E-1,1.1E1,4E-1,-1E-1,6E0,5.1669117E-2,-4.71321E-2,-5.464487E-2,1.7490994E-2,-4.971761E-2,4.870272E-2,4.716346E-2,6.6071055E-3,-4.833497E-2,-2.7291823E-2,5.945261E-3,-3.226702E-2,-4.8914783E-2,3.3316616E-2,3.557389E-2,-1.9205166E-2,3.0540708E-2,5.3507376E-2,2.4646444E-2,5.2399486E-2,4.2769298E-2,-2.5493965E-2,5.020042E-2,5.5055525E-2,5.167503E-2,1.6734792E-2,-5.6175947E-2,2.6446072E-2],"split_indices":[13,2,11,11,11,7,8,10,2,4,3,0,10,6,7,12,10,3,7,2,15,8,7,7,15,8,13,10,11,0,0,0,0,0,0,0,0,0,0,0,0,0,0,0,0,0,0,0,0,0,0,0,0,0,0,0,0],"split_type":[0,0,0,0,0,0,0,0,0,0,0,0,0,0,0,0,0,0,0,0,0,0,0,0,0,0,0,0,0,0,0,0,0,0,0,0,0,0,0,0,0,0,0,0,0,0,0,0,0,0,0,0,0,0,0,0,0],"sum_hessian":[2.778265E3,1.5445284E3,1.2337363E3,7.825446E2,7.619838E2,3.5406927E2,8.796671E2,7.622756E2,2.0269018E1,6.6328253E2,9.87013E1,7.4335655E1,2.797336E2,8.657834E2,1.3883709E1,5.381117E0,7.568945E2,8.669011E0,1.1600007E1,5.374712E2,1.2581131E2,6.8272257E0,9.187408E1,1.6886768E2,1.10865944E2,3.0186647E1,8.3559674E2,9.414119E0,4.4695907E0,2.7155766E0,2.66554E0,7.5551117E2,1.3832729E0,5.6806808E0,2.9883304E0,8.050577E0,3.5494294E0,3.1987933E2,2.1759187E2,7.912955E1,4.668176E1,5.0848246E0,1.742401E0,8.7046814E1,4.827266E0,1.4202939E2,2.6838278E1,5.6486998E0,1.0521724E2,2.8525446E1,1.6611998E0,2.602449E2,5.7535187E2,6.7628613E0,2.651257E0,1.6387854E0,2.830805E0],"tree_param":{"num_deleted":"0","num_feature":"17","num_nodes":"57","size_leaf_vector":"1"}},{"base_weights":[1.40430555E-2,-5.802331E-2,9.43826E-1,5.061497E-1,1.0288416E0,7.173588E-1,-4.1490507E-1,8.2078576E-1,1.0517071E0,4.8384675E-1,1.0718338E0,-6.234022E-2,9.421724E-2,8.882154E-1,-9.205748E-2,8.561417E-1,1.0658534E0,3.335995E-2,-1.1701642E-2,5.0409283E-3,5.4794338E-2,1.7238216E-2,-6.1807152E-2,3.6493685E-2,5.72994E-2,-1.0099052E-2,4.5474682E-2,4.557654E-2,5.4100312E-2],"categories":[],"categories_nodes":[],"categories_segments":[],"categories_sizes":[],"default_left":[0,0,0,0,0,0,0,0,0,0,0,0,0,0,0,0,0,0,0,0,0,0,0,0,0,0,0,0,0],"id":27,"left_children":[1,-1,3,5,7,9,11,13,15,17,19,-1,21,23,-1,25,27,-1,-1,-1,-1,-1,-1,-1,-1,-1,-1,-1,-1],"loss_changes":[2.9916968E3,0E0,5.6375122E1,4.9061996E1,5.2232666E0,1.6390366E1,2.0190237E1,2.5191833E1,2.2666016E0,1.660588E1,1.7650604E0,0E0,1.0535668E1,4.415436E0,0E0,4.8466606E0,1.6749268E0,0E0,0E0,0E0,0E0,0E0,0E0,0E0,0E0,0E0,0E0,0E0,0E0],"parents":[2147483647,0,0,2,2,3,3,4,4,5,5,6,6,7,7,8,8,9,9,10,10,12,12,13,13,15,15,16,16],"right_children":[2,-1,4,6,8,10,12,14,16,18,20,-1,22,24,-1,26,28,-1,-1,-1,-1,-1,-1,-1,-1,-1,-1,-1,-1],"split_conditions":[2E-1,-5.802331E-2,6E-1,2E-1,8E-1,2E0,4E-1,6E-1,2E-1,1.6E1,6.3E1,-6.234022E-2,4E-1,2E0,-9.205748E-2,-9.961947E-1,3E0,3.335995E-2,-1.1701642E-2,5.0409283E-3,5.4794338E-2,1.7238216E-2,-6.1807152E-2,3.6493685E-2,5.72994E-2,-1.0099052E-2,4.5474682E-2,4.557654E-2,5.4100312E-2],"split_indices":[14,0,14,13,14,11,14,13,13,6,2,0,13,11,0,16,6,0,0,0,0,0,0,0,0,0,0,0,0],"split_type":[0,0,0,0,0,0,0,0,0,0,0,0,0,0,0,0,0,0,0,0,0,0,0,0,0,0,0,0,0],"sum_hessian":[2.7375493E3,1.2094784E3,1.5280709E3,2.4967119E2,1.2783997E3,2.0327817E2,4.639302E1,1.302389E2,1.1481608E3,1.2397441E2,7.930376E1,1.706314E1,2.932988E1,1.2767118E2,2.5677187E0,8.159918E1,1.0665616E3,9.880852E1,2.5165895E1,2.0424218E0,7.726133E1,2.5305025E1,4.024853E0,8.146265E1,4.6208538E1,3.7831209E0,7.781606E1,1.0650084E2,9.600607E2],"tree_param":{"num_deleted":"0","num_feature":"17","num_nodes":"29","size_leaf_vector":"1"}},{"base_weights":[-1.8362381E-3,-5.7566583E-2,9.2358595E-1,4.587626E-1,1.0175217E0,6.365465E-1,-3.2890615E-1,7.5658494E-1,1.0438731E0,8.064956E-1,2.822088E-1,-6.092983E-2,1.556444E-1,8.189514E-1,-4.008762E-1,1.0551794E0,7.3296E-1,5.0761998E-2,3.2508332E-2,-7.831272E-2,1.8477114E-2,-2.8081188E-2,2.8165841E-2,1.6269095E-2,4.410786E-2,1.5661662E-2,-7.653935E-2,4.4907942E-2,5.3514004E-2,-2.0437026E-2,4.442238E-2],"categories":[],"categories_nodes":[],"categories_segments":[],"categories_sizes":[],"default_left":[0,0,0,0,0,0,0,0,0,0,0,0,0,0,0,0,0,0,0,0,0,0,0,0,0,0,0,0,0,0,0],"id":28,"left_children":[1,-1,3,5,7,9,11,13,15,17,19,-1,21,23,25,27,29,-1,-1,-1,-1,-1,-1,-1,-1,-1,-1,-1,-1,-1,-1],"loss_changes":[2.745688E3,0E0,6.1968384E1,3.4127426E1,7.383789E0,1.1692833E1,1.9701916E1,8.461357E0,3.0128174E0,3.6881027E0,1.1185635E1,0E0,9.144033E0,3.0583115E0,5.6691175E0,1.4974365E0,7.6533012E0,0E0,0E0,0E0,0E0,0E0,0E0,0E0,0E0,0E0,0E0,0E0,0E0,0E0,0E0],"parents":[2147483647,0,0,2,2,3,3,4,4,5,5,6,6,7,7,8,8,9,9,10,10,12,12,13,13,14,14,15,15,16,16],"right_children":[2,-1,4,6,8,10,12,14,16,18,20,-1,22,24,26,28,30,-1,-1,-1,-1,-1,-1,-1,-1,-1,-1,-1,-1,-1,-1],"split_conditions":[2E-1,-5.7566583E-2,6E-1,2E-1,2E-1,6E-1,4E-1,2.8E0,1.98E1,1.06E1,9.972E2,-6.092983E-2,5.6E0,-9.848077E-1,-6.946584E-1,8E-1,7E0,5.0761998E-2,3.2508332E-2,-7.831272E-2,1.8477114E-2,-2.8081188E-2,2.8165841E-2,1.6269095E-2,4.410786E-2,1.5661662E-2,-7.653935E-2,4.4907942E-2,5.3514004E-2,-2.0437026E-2,4.442238E-2],"split_indices":[14,0,14,13,13,7,14,7,0,0,1,0,4,16,15,14,5,0,0,0,0,0,0,0,0,0,0,0,0,0,0],"split_type":[0,0,0,0,0,0,0,0,0,0,0,0,0,0,0,0,0,0,0,0,0,0,0,0,0,0,0,0,0,0,0],"sum_hessian":[2.5790957E3,1.1501788E3,1.4289167E3,2.412116E2,1.1877052E3,1.9695006E2,4.4261536E1,1.1166687E2,1.0760383E3,1.3224568E2,6.470438E1,1.5072251E1,2.9189283E1,1.0623515E2,5.431717E0,1.0359717E3,4.0066605E1,5.427654E1,7.796915E1,2.1551528E0,6.254922E1,1.0441187E1,1.8748098E1,1.2757867E1,9.347729E1,3.7711263E0,1.6605906E0,9.619451E1,9.3977716E2,4.6073565E0,3.5459248E1],"tree_param":{"num_deleted":"0","num_feature":"17","num_nodes":"31","size_leaf_vector":"1"}},{"base_weights":[2.470555E-3,-5.714276E-2,9.0250504E-1,4.6505067E-1,9.974124E-1,6.2359995E-1,-1.5527458E-1,7.795471E-1,1.0241967E0,7.910098E-1,2.7749678E-1,-6.032128E-2,3.3229724E-1,8.5929495E-1,-9.538251E-2,7.759279E-1,1.0425224E0,4.0640105E-2,-2.705785E-2,-1.5206695E-2,2.4973249E-2,2.6659817E-2,-5.9476923E-2,4.520464E-2,8.698928E-3,4.326008E-2,4.217663E-3,5.2673873E-2,3.430002E-2],"categories":[],"categories_nodes":[],"categories_segments":[],"categories_sizes":[],"default_left":[0,0,0,0,0,0,0,0,0,0,0,0,0,0,0,0,0,0,0,0,0,0,0,0,0,0,0,0,0],"id":29,"left_children":[1,-1,3,5,7,9,11,13,15,17,19,-1,21,23,-1,25,27,-1,-1,-1,-1,-1,-1,-1,-1,-1,-1,-1,-1],"loss_changes":[2.5714263E3,0E0,5.7529175E1,2.4772934E1,5.894409E0,1.13699875E1,2.6986628E1,2.9445236E1,3.8236084E0,4.337906E0,8.76948E0,0E0,1.1708132E1,3.7325897E0,0E0,4.489586E0,2.9693604E0,0E0,0E0,0E0,0E0,0E0,0E0,0E0,0E0,0E0,0E0,0E0,0E0],"parents":[2147483647,0,0,2,2,3,3,4,4,5,5,6,6,7,7,8,8,9,9,10,10,12,12,13,13,15,15,16,16],"right_children":[2,-1,4,6,8,10,12,14,16,18,20,-1,22,24,-1,26,28,-1,-1,-1,-1,-1,-1,-1,-1,-1,-1,-1,-1],"split_conditions":[2E-1,-5.714276E-2,6E-1,2E-1,8E-1,6E-1,4E-1,6E-1,2E-1,1.76E1,6.7E0,-6.032128E-2,4E-1,4E-1,-9.538251E-2,2E1,1.78E1,4.0640105E-2,-2.705785E-2,-1.5206695E-2,2.4973249E-2,2.6659817E-2,-5.9476923E-2,4.520464E-2,8.698928E-3,4.326008E-2,4.217663E-3,5.2673873E-2,3.430002E-2],"split_indices":[14,0,14,13,14,7,14,13,13,3,3,0,13,13,0,6,3,0,0,0,0,0,0,0,0,0,0,0,0],"split_type":[0,0,0,0,0,0,0,0,0,0,0,0,0,0,0,0,0,0,0,0,0,0,0,0,0,0,0,0,0],"sum_hessian":[2.4925132E3,1.0966797E3,1.3958334E3,2.4989546E2,1.145938E3,1.9902203E2,5.0873436E1,1.2875371E2,1.01718427E3,1.3327267E2,6.574936E1,1.5652983E1,3.522045E1,1.2570344E2,3.0502717E0,7.290041E1,9.442838E2,1.3151122E2,1.7614613E0,1.8058884E1,4.769047E1,3.1687048E1,3.5334039E0,1.1769097E2,8.012467E0,6.434342E1,8.556992E0,9.1423663E2,3.0047165E1],"tree_param":{"num_deleted":"0","num_feature":"17","num_nodes":"29","size_leaf_vector":"1"}},{"base_weights":[4.3139214E-4,-5.673734E-2,8.8522834E-1,4.1347662E-1,9.860081E-1,1.9099963E-1,9.9637574E-1,6.323595E-1,1.0187327E0,3.2736057E-1,-7.023138E-1,3.1024477E-1,1.0444397E0,1.7681256E-1,9.247162E-1,8.516922E-1,1.047924E0,-7.935207E-2,1.8642932E-2,-9.2506245E-2,5.2343723E-3,-5.4989427E-2,4.463346E-2,5.2873522E-2,7.549602E-3,1.5849566E-2,-7.521518E-2,3.0331885E-2,5.410549E-2,4.6588797E-2,2.1950405E-2,4.6370976E-2,5.3645957E-2],"categories":[],"categories_nodes":[],"categories_segments":[],"categories_sizes":[],"default_left":[0,0,0,0,0,0,0,0,0,0,0,0,0,0,0,0,0,0,0,0,0,0,0,0,0,0,0,0,0,0,0,0,0],"id":30,"left_children":[1,-1,3,5,7,9,11,13,15,17,19,21,23,25,27,29,31,-1,-1,-1,-1,-1,-1,-1,-1,-1,-1,-1,-1,-1,-1,-1,-1],"loss_changes":[2.4363743E3,0E0,6.440222E1,3.1150688E1,1.2346558E1,2.1687634E1,1.8697891E0,1.2849655E1,4.109497E0,1.3962435E1,2.2096666E1,5.7264543E0,5.591965E-1,9.769074E0,2.3112297E0,4.8106613E0,1.6220093E0,0E0,0E0,0E0,0E0,0E0,0E0,0E0,0E0,0E0,0E0,0E0,0E0,0E0,0E0,0E0,0E0],"parents":[2147483647,0,0,2,2,3,3,4,4,5,5,6,6,7,7,8,8,9,9,10,10,11,11,12,12,13,13,14,14,15,15,16,16],"right_children":[2,-1,4,6,8,10,12,14,16,18,20,22,24,26,28,30,32,-1,-1,-1,-1,-1,-1,-1,-1,-1,-1,-1,-1,-1,-1,-1,-1],"split_conditions":[2E-1,-5.673734E-2,6E-1,3E0,2E-1,6E-1,7.1E1,1E0,-2E0,2.3E0,0E0,0E0,9.1E1,2.8E0,-7.986355E-1,0E0,1E0,-7.935207E-2,1.8642932E-2,-9.2506245E-2,5.2343723E-3,-5.4989427E-2,4.463346E-2,5.2873522E-2,7.549602E-3,1.5849566E-2,-7.521518E-2,3.0331885E-2,5.410549E-2,4.6588797E-2,2.1950405E-2,4.6370976E-2,5.3645957E-2],"split_indices":[14,0,14,11,13,10,2,11,11,3,8,8,2,7,16,8,14,0,0,0,0,0,0,0,0,0,0,0,0,0,0,0,0],"split_type":[0,0,0,0,0,0,0,0,0,0,0,0,0,0,0,0,0,0,0,0,0,0,0,0,0,0,0,0,0,0,0,0,0],"sum_hessian":[2.423696E3,1.0615126E3,1.3621835E3,2.4067639E2,1.1215071E3,1.751529E2,6.55235E1,9.670942E1,1.0247977E3,1.5250684E2,2.2646053E1,4.7775073E0,6.074599E1,3.843117E1,5.8278244E1,1.5693759E2,8.6786005E2,2.7538261E0,1.4975302E2,8.815307E0,1.3830747E1,1.1368736E0,3.6406336E0,5.9691807E1,1.0541838E0,3.6222244E1,2.2089272E0,2.08985E1,3.7379745E1,1.3037895E2,2.6558643E1,1.5563351E2,7.1222656E2],"tree_param":{"num_deleted":"0","num_feature":"17","num_nodes":"33","size_leaf_vector":"1"}},{"base_weights":[1.8346271E-3,-5.636775E-2,8.7549025E-1,4.364233E-1,9.7053885E-1,1.6368438E-1,9.42048E-1,7.5541395E-1,9.9707884E-1,3.1871733E-1,-7.3751825E-1,-9.479156E-2,9.745347E-1,7.892894E-1,-5.053449E-1,1.0003477E0,7.6060216E-3,1.0442241E-2,5.4734793E-2,-7.208601E-2,4.5051086E-3,4.2323317E-2,-5.261767E-2,3.3361014E-2,5.271357E-2,3.232607E-2,5.168078E-2,3.6537565E-2,-8.371827E-2,4.4958096E-2,5.2016255E-2,-4.0465493E-2,3.819823E-2],"categories":[],"categories_nodes":[],"categories_segments":[],"categories_sizes":[],"default_left":[0,0,0,0,0,0,0,0,0,0,0,0,0,0,0,0,0,0,0,0,0,0,0,0,0,0,0,0,0,0,0,0,0],"id":31,"left_children":[1,-1,3,5,7,9,11,13,15,17,19,21,23,25,27,29,31,-1,-1,-1,-1,-1,-1,-1,-1,-1,-1,-1,-1,-1,-1,-1,-1],"loss_changes":[2.3000176E3,0E0,5.4431946E1,3.2353775E1,5.411316E0,2.179888E1,2.867546E0,5.6393204E0,3.0910645E0,1.1058322E1,1.350871E1,3.968215E0,1.2562943E0,3.5134583E0,6.7439413E0,2.927124E0,3.1900613E0,0E0,0E0,0E0,0E0,0E0,0E0,0E0,0E0,0E0,0E0,0E0,0E0,0E0,0E0,0E0,0E0],"parents":[2147483647,0,0,2,2,3,3,4,4,5,5,6,6,7,7,8,8,9,9,10,10,11,11,12,12,13,13,14,14,15,15,16,16],"right_children":[2,-1,4,6,8,10,12,14,16,18,20,22,24,26,28,30,32,-1,-1,-1,-1,-1,-1,-1,-1,-1,-1,-1,-1,-1,-1,-1,-1],"split_conditions":[2E-1,-5.636775E-2,6E-1,2E0,8E-1,6E-1,6.4E1,1.68E1,3.7E1,4E0,8.7E1,4.6E1,3E0,2E0,1.0044E3,0E0,5E0,1.0442241E-2,5.4734793E-2,-7.208601E-2,4.5051086E-3,4.2323317E-2,-5.261767E-2,3.3361014E-2,5.271357E-2,3.232607E-2,5.168078E-2,3.6537565E-2,-8.371827E-2,4.4958096E-2,5.2016255E-2,-4.0465493E-2,3.819823E-2],"split_indices":[14,0,14,11,14,10,2,3,8,9,2,2,11,11,1,11,11,0,0,0,0,0,0,0,0,0,0,0,0,0,0,0,0],"split_type":[0,0,0,0,0,0,0,0,0,0,0,0,0,0,0,0,0,0,0,0,0,0,0,0,0,0,0,0,0,0,0,0,0],"sum_hessian":[2.3294385E3,1.0159913E3,1.3134471E3,2.3472978E2,1.0787173E3,1.5334027E2,8.138952E1,1.21701965E2,9.570154E2,1.3138464E2,2.195562E1,2.41439E0,7.897513E1,1.1888168E2,2.820286E0,9.5385315E2,3.1622512E0,1.16200676E2,1.5183972E1,1.1461394E1,1.04942255E1,1.2760681E0,1.1383219E0,1.819958E1,6.0775547E1,7.7337135E1,4.1544544E1,1.5530396E0,1.2672465E0,2.7678333E2,6.7706976E2,1.4866095E0,1.6756419E0],"tree_param":{"num_deleted":"0","num_feature":"17","num_nodes":"33","size_leaf_vector":"1"}},{"base_weights":[4.3308893E-3,-5.600942E-2,8.61763E-1,4.0615547E-1,9.605038E-1,5.8359575E-1,-3.3814088E-1,9.802951E-1,5.6344306E-1,4.270642E-1,1.0233927E0,-7.347592E-2,4.172959E-2,7.259987E-1,1.0021212E0,-4.718257E-2,6.224679E-1,2.7845398E-2,-2.8365802E-3,-2.9366508E-3,5.278885E-2,-5.6809556E-2,2.0394955E-2,5.7942863E-3,5.1689547E-2,4.3828662E-2,5.1470764E-2,3.9776503E-3,3.792494E-2],"categories":[],"categories_nodes":[],"categories_segments":[],"categories_sizes":[],"default_left":[0,0,0,0,0,0,0,0,0,0,0,0,0,0,0,0,0,0,0,0,0,0,0,0,0,0,0,0,0],"id":32,"left_children":[1,-1,3,5,7,9,11,13,15,17,19,-1,21,23,25,-1,27,-1,-1,-1,-1,-1,-1,-1,-1,-1,-1,-1,-1],"loss_changes":[2.159834E3,0E0,5.678601E1,3.0323914E1,7.6503906E0,1.2268955E1,1.9206408E1,4.7835083E0,5.2051563E0,8.690161E0,1.7346954E0,0E0,1.5267011E1,1.530035E1,2.222107E0,0E0,3.673439E0,0E0,0E0,0E0,0E0,0E0,0E0,0E0,0E0,0E0,0E0,0E0,0E0],"parents":[2147483647,0,0,2,2,3,3,4,4,5,5,6,6,7,7,8,8,9,9,10,10,12,12,13,13,14,14,16,16],"right_children":[2,-1,4,6,8,10,12,14,16,18,20,-1,22,24,26,-1,28,-1,-1,-1,-1,-1,-1,-1,-1,-1,-1,-1,-1],"split_conditions":[2E-1,-5.600942E-2,6E-1,2E-1,1.98E1,3E0,0E0,2E-1,1.0021E3,1.6E1,-9E0,-7.347592E-2,4E-1,1E0,1E0,-4.718257E-2,7E0,2.7845398E-2,-2.8365802E-3,-2.9366508E-3,5.278885E-2,-5.6809556E-2,2.0394955E-2,5.7942863E-3,5.1689547E-2,4.3828662E-2,5.1470764E-2,3.9776503E-3,3.792494E-2],"split_indices":[14,0,14,13,0,11,8,13,1,6,8,0,14,11,14,0,5,0,0,0,0,0,0,0,0,0,0,0,0],"split_type":[0,0,0,0,0,0,0,0,0,0,0,0,0,0,0,0,0,0,0,0,0,0,0,0,0,0,0,0,0],"sum_hessian":[2.2380283E3,9.6808356E2,1.2699447E3,2.2711394E2,1.0428307E3,1.8356738E2,4.354656E1,9.919201E2,5.091062E1,1.3683604E2,4.673133E1,1.0224929E1,3.332163E1,8.111465E1,9.108054E2,1.3538975E0,4.9556725E1,1.07762924E2,2.907312E1,1.3342266E0,4.5397102E1,7.4032865E0,2.5918343E1,2.766096E1,5.3453686E1,1.685624E2,7.4224304E2,1.0246522E1,3.93102E1],"tree_param":{"num_deleted":"0","num_feature":"17","num_nodes":"29","size_leaf_vector":"1"}},{"base_weights":[8.873637E-3,-5.9169143E-1,4.844825E-1,-7.07048E-1,5.083579E-1,7.071167E-1,1.0838574E-1,-9.183197E-1,-3.1855297E-1,-1.0210486E-1,6.91401E-1,4.8751032E-1,8.263879E-1,-7.402486E-1,2.3870568E-1,-3.884743E-2,-9.511073E-1,2.5589153E-2,-8.4860986E-1,-7.218515E-1,5.4487723E-1,4.1063842E-1,1.0161684E0,2.548429E-1,7.028888E-1,5.3840405E-1,9.2034817E-1,-8.784655E-1,-1.6666652E-1,-2.1648023E-1,4.1794625E-1,2.5947783E-2,-3.9959572E-2,-4.9181275E-2,-2.7732935E-3,4.9952626E-2,-4.312749E-3,-4.5015637E-2,6.0269404E-3,-5.7735648E-2,2.8087309E-2,3.93792E-2,-4.2957395E-2,1.2448342E-3,3.7710216E-2,1.8837767E-3,5.2380145E-2,-5.4069525E-3,3.5031226E-2,3.9444063E-2,1.5403998E-2,1.40654E-2,4.7006685E-2,4.9525138E-2,3.5212394E-2,-5.1981766E-2,-1.9987306E-2,-4.300818E-2,7.7829077E-3,4.9955916E-2,-1.5475012E-2,2.870114E-2,1.3841222E-3],"categories":[],"categories_nodes":[],"categories_segments":[],"categories_sizes":[],"default_left":[0,0,0,0,0,0,0,0,0,0,0,0,0,0,0,0,0,0,0,0,0,0,0,0,0,0,0,0,0,0,0,0,0,0,0,0,0,0,0,0,0,0,0,0,0,0,0,0,0,0,0,0,0,0,0,0,0,0,0,0,0,0,0],"id":33,"left_children":[1,3,5,7,9,11,13,15,17,19,21,23,25,27,29,31,33,35,37,39,41,43,45,47,49,51,53,55,57,59,61,-1,-1,-1,-1,-1,-1,-1,-1,-1,-1,-1,-1,-1,-1,-1,-1,-1,-1,-1,-1,-1,-1,-1,-1,-1,-1,-1,-1,-1,-1,-1,-1],"loss_changes":[6.2483636E2,1.23041534E2,1.02140045E2,7.1561584E1,1.0388819E1,1.9677734E1,5.050942E1,1.6299316E1,5.6553833E1,9.283559E0,6.0720406E0,1.3464615E1,1.2908966E1,4.6760445E0,3.2340782E1,9.492751E0,1.5851105E1,2.0650652E1,6.223175E0,7.179721E0,4.567369E0,5.26223E0,9.5464706E-1,2.1507492E1,4.5378036E0,1.2571114E1,4.9436646E0,3.3482819E0,3.0500636E0,1.3011593E1,1.7279648E1,0E0,0E0,0E0,0E0,0E0,0E0,0E0,0E0,0E0,0E0,0E0,0E0,0E0,0E0,0E0,0E0,0E0,0E0,0E0,0E0,0E0,0E0,0E0,0E0,0E0,0E0,0E0,0E0,0E0,0E0,0E0,0E0],"parents":[2147483647,0,0,1,1,2,2,3,3,4,4,5,5,6,6,7,7,8,8,9,9,10,10,11,11,12,12,13,13,14,14,15,15,16,16,17,17,18,18,19,19,20,20,21,21,22,22,23,23,24,24,25,25,26,26,27,27,28,28,29,29,30,30],"right_children":[2,4,6,8,10,12,14,16,18,20,22,24,26,28,30,32,34,36,38,40,42,44,46,48,50,52,54,56,58,60,62,-1,-1,-1,-1,-1,-1,-1,-1,-1,-1,-1,-1,-1,-1,-1,-1,-1,-1,-1,-1,-1,-1,-1,-1,-1,-1,-1,-1,-1,-1,-1,-1],"split_conditions":[8.3E1,9E-1,1.0109E3,7.6E1,1.6E0,8E-1,4.8E0,-3.3E0,1.0157E3,1.23E1,1.7E0,9.2E1,8.7E1,2E0,8E-1,1.45E1,4.1E0,-1.2E0,1.4E1,4.2E0,1.0143E3,8.5E0,5.3E0,2E0,1.1E1,2E0,1.1E1,6.4E0,7E0,-9.9939084E-1,1.1E1,2.5947783E-2,-3.9959572E-2,-4.9181275E-2,-2.7732935E-3,4.9952626E-2,-4.312749E-3,-4.5015637E-2,6.0269404E-3,-5.7735648E-2,2.8087309E-2,3.93792E-2,-4.2957395E-2,1.2448342E-3,3.7710216E-2,1.8837767E-3,5.2380145E-2,-5.4069525E-3,3.5031226E-2,3.9444063E-2,1.5403998E-2,1.40654E-2,4.7006685E-2,4.9525138E-2,3.5212394E-2,-5.1981766E-2,-1.9987306E-2,-4.300818E-2,7.7829077E-3,4.9955916E-2,-1.5475012E-2,2.870114E-2,1.3841222E-3],"split_indices":[2,10,1,2,4,4,0,12,1,3,10,2,2,11,4,0,12,10,8,10,1,3,0,11,5,11,5,4,6,16,5,0,0,0,0,0,0,0,0,0,0,0,0,0,0,0,0,0,0,0,0,0,0,0,0,0,0,0,0,0,0,0,0],"split_type":[0,0,0,0,0,0,0,0,0,0,0,0,0,0,0,0,0,0,0,0,0,0,0,0,0,0,0,0,0,0,0,0,0,0,0,0,0,0,0,0,0,0,0,0,0,0,0,0,0,0,0,0,0,0,0,0,0,0,0,0,0,0,0],"sum_hessian":[2.1855376E3,9.657779E2,1.2197598E3,8.744374E2,9.134054E1,7.6564716E2,4.5411264E2,5.6552783E2,3.0890955E2,2.1172108E1,7.016843E1,2.7126727E2,4.9437985E2,5.9829147E1,3.942835E2,2.040422E1,5.451236E2,1.8787953E2,1.21030014E2,1.0754556E1,1.0417552E1,3.8848324E1,3.1320107E1,1.3144939E2,1.398179E2,1.232757E2,3.7110416E2,4.778322E1,1.2045928E1,1.1133577E2,2.8294772E2,1.195285E1,8.45137E0,5.2593036E2,1.9193241E1,1.8544067E1,1.6933546E2,1.1496766E2,6.0623555E0,8.11753E0,2.637026E0,9.256483E0,1.1610689E0,1.8806086E1,2.0042238E1,1.0432853E0,3.0276821E1,7.287095E1,5.857844E1,1.1399152E2,2.5826378E1,7.620611E1,4.7069588E1,2.7744974E2,9.365444E1,3.487141E1,1.2911809E1,3.2927637E0,8.753164E0,7.221628E0,1.0411414E2,2.017799E2,8.1167816E1],"tree_param":{"num_deleted":"0","num_feature":"17","num_nodes":"63","size_leaf_vector":"1"}},{"base_weights":[-9.578142E-3,-5.552551E-2,8.259187E-1,4.788912E-1,9.5992E-1,5.2892476E-1,-5.848311E-1,6.233254E-1,9.864775E-1,3.2576928E-1,6.928648E-1,-1.154713E0,7.6063114E-1,1.383296E-1,7.811256E-1,9.9484307E-1,1.6288453E-1,2.3932258E-2,-5.8256365E-2,-4.5152575E-2,3.6135808E-2,-8.4813505E-2,-1.0688406E-2,4.3971203E-2,6.4631114E-3,-9.913122E-2,2.4817502E-2,1.8418096E-3,4.3352924E-2,5.0289746E-2,3.4606572E-2,3.2442078E-2,-3.561316E-2],"categories":[],"categories_nodes":[],"categories_segments":[],"categories_sizes":[],"default_left":[0,0,0,0,0,0,0,0,0,0,0,0,0,0,0,0,0,0,0,0,0,0,0,0,0,0,0,0,0,0,0,0,0],"id":34,"left_children":[1,-1,3,5,7,9,11,13,15,17,19,21,23,25,27,29,31,-1,-1,-1,-1,-1,-1,-1,-1,-1,-1,-1,-1,-1,-1,-1,-1],"loss_changes":[1.9436981E3,0E0,5.540753E1,1.822754E1,7.1239014E0,1.0500954E1,1.2839092E1,4.945175E0,5.3546753E0,3.3770493E1,9.101685E0,5.423641E0,2.7964926E-1,1.4215095E1,3.1406193E0,1.9309692E0,4.3947325E0,0E0,0E0,0E0,0E0,0E0,0E0,0E0,0E0,0E0,0E0,0E0,0E0,0E0,0E0,0E0,0E0],"parents":[2147483647,0,0,2,2,3,3,4,4,5,5,6,6,7,7,8,8,9,9,10,10,11,11,12,12,13,13,14,14,15,15,16,16],"right_children":[2,-1,4,6,8,10,12,14,16,18,20,22,24,26,28,30,32,-1,-1,-1,-1,-1,-1,-1,-1,-1,-1,-1,-1,-1,-1,-1,-1],"split_conditions":[2E-1,-5.552551E-2,8E-1,4E-1,2E-1,4E-1,1.3E1,0E0,2.4E1,2E-1,-9.986295E-1,8.7E1,2.6E1,1.15E1,-9.781476E-1,1.98E1,7E-1,2.3932258E-2,-5.8256365E-2,-4.5152575E-2,3.6135808E-2,-8.4813505E-2,-1.0688406E-2,4.3971203E-2,6.4631114E-3,-9.913122E-2,2.4817502E-2,1.8418096E-3,4.3352924E-2,5.0289746E-2,3.4606572E-2,3.2442078E-2,-3.561316E-2],"split_indices":[14,0,14,13,13,14,8,8,8,13,15,2,8,0,16,0,7,0,0,0,0,0,0,0,0,0,0,0,0,0,0,0,0],"split_type":[0,0,0,0,0,0,0,0,0,0,0,0,0,0,0,0,0,0,0,0,0,0,0,0,0,0,0,0,0,0,0,0,0],"sum_hessian":[2.1111196E3,9.107273E2,1.2003922E3,3.356701E2,8.6472217E2,3.2107086E2,1.459923E1,6.5027275E1,7.996949E2,1.4472003E2,1.7635085E2,1.0355039E1,4.2441916E0,1.6424255E1,4.8603024E1,7.914479E2,8.246962E0,1.3187643E2,1.28435955E1,2.7009451E0,1.736499E2,6.0628557E0,4.2921824E0,3.2414281E0,1.0027636E0,1.7166836E0,1.4707571E1,5.1785727E0,4.342445E1,7.615724E2,2.9875515E1,5.4688044E0,2.778157E0],"tree_param":{"num_deleted":"0","num_feature":"17","num_nodes":"33","size_leaf_vector":"1"}},{"base_weights":[3.7218435E-3,-7.0792526E-1,8.986502E-1,-7.8156203E-1,2.1040739E-1,1.0482093E0,8.3654386E-1,-9.592444E-1,-5.0286835E-1,-6.473699E-1,5.588964E-1,8.7637043E-1,1.0732275E0,8.478564E-1,-3.098585E-1,-4.3780103E-1,-9.9561256E-1,-2.0686848E-1,-7.1673906E-1,-5.405077E-2,1.3152595E-1,-3.0962825E-1,6.416442E-1,-5.2871983E-2,9.5981526E-1,5.386586E-2,1.7605728E-2,7.726631E-1,1.029356E0,-7.057714E-2,2.0997064E-1,3.6820048E-3,-5.926354E-2,-5.052931E-2,-2.701732E-2,-1.8319158E-2,1.5825711E-2,-3.7071798E-2,4.9543545E-2,-3.9860394E-2,2.9039526E-2,-4.7631923E-2,1.6424092E-2,1.0076423E-2,3.7833374E-2,5.0401647E-2,-7.158868E-4,2.5136689E-2,4.35463E-2,3.8224842E-2,5.3079393E-2,-1.6854217E-2,3.918516E-2],"categories":[],"categories_nodes":[],"categories_segments":[],"categories_sizes":[],"default_left":[0,0,0,0,0,0,0,0,0,0,0,0,0,0,0,0,0,0,0,0,0,0,0,0,0,0,0,0,0,0,0,0,0,0,0,0,0,0,0,0,0,0,0,0,0,0,0,0,0,0,0,0,0],"id":35,"left_children":[1,3,5,7,9,11,13,15,17,19,21,23,25,27,29,31,33,35,37,-1,39,41,43,-1,45,-1,-1,47,49,-1,51,-1,-1,-1,-1,-1,-1,-1,-1,-1,-1,-1,-1,-1,-1,-1,-1,-1,-1,-1,-1,-1,-1],"loss_changes":[1.2985267E3,7.6967896E1,7.512146E0,5.1594727E1,2.5799995E1,1.8170166E-1,8.602966E0,1.1722107E1,2.590506E1,8.602583E0,4.5862694E0,7.2481976E0,2.7954102E-1,7.8993225E0,4.3145876E0,1.6748926E1,3.5341797E0,1.4645586E1,1.07934265E1,0E0,4.572733E0,2.7686636E0,2.6857357E0,0E0,1.7783737E0,0E0,0E0,1.1616638E1,7.5590515E-1,0E0,2.0336008E0,0E0,0E0,0E0,0E0,0E0,0E0,0E0,0E0,0E0,0E0,0E0,0E0,0E0,0E0,0E0,0E0,0E0,0E0,0E0,0E0,0E0,0E0],"parents":[2147483647,0,0,1,1,2,2,3,3,4,4,5,5,6,6,7,7,8,8,9,9,10,10,11,11,12,12,13,13,14,14,15,15,16,16,17,17,18,18,20,20,21,21,22,22,24,24,27,27,28,28,30,30],"right_children":[2,4,6,8,10,12,14,16,18,20,22,24,26,28,30,32,34,36,38,-1,40,42,44,-1,46,-1,-1,48,50,-1,52,-1,-1,-1,-1,-1,-1,-1,-1,-1,-1,-1,-1,-1,-1,-1,-1,-1,-1,-1,-1,-1,-1],"split_conditions":[2E-1,6E0,-1.9E0,8.2E1,7.1E1,2E0,2.13E1,2E0,1.0109E3,1.51E1,7.9E0,-3E0,9.8768836E-1,2.7E0,2.18E1,-3.5836795E-1,4.9E0,2E0,5.6E0,-5.405077E-2,8E-1,3.7460658E-1,1.1E1,-5.2871983E-2,4.8E0,5.386586E-2,1.7605728E-2,0E0,2E0,-7.057714E-2,8E1,3.6820048E-3,-5.926354E-2,-5.052931E-2,-2.701732E-2,-1.8319158E-2,1.5825711E-2,-3.7071798E-2,4.9543545E-2,-3.9860394E-2,2.9039526E-2,-4.7631923E-2,1.6424092E-2,1.0076423E-2,3.7833374E-2,5.0401647E-2,-7.158868E-4,2.5136689E-2,4.35463E-2,3.8224842E-2,5.3079393E-2,-1.6854217E-2,3.918516E-2],"split_indices":[13,11,7,2,2,5,0,5,1,3,0,11,16,7,0,16,9,11,12,0,12,15,6,0,9,0,0,11,5,0,2,0,0,0,0,0,0,0,0,0,0,0,0,0,0,0,0,0,0,0,0,0,0],"split_type":[0,0,0,0,0,0,0,0,0,0,0,0,0,0,0,0,0,0,0,0,0,0,0,0,0,0,0,0,0,0,0,0,0,0,0,0,0,0,0,0,0,0,0,0,0,0,0,0,0,0,0,0,0],"sum_hessian":[2.0369105E3,1.134759E3,9.021515E2,1.0506604E3,8.4098595E1,2.6004825E2,6.421033E2,6.401123E2,4.1054813E2,2.404822E1,6.0050373E1,3.7627926E1,2.2242032E2,6.3608685E2,6.0164003E0,4.258414E1,5.975282E2,1.7303404E2,2.375141E2,1.5198608E1,8.84961E0,4.9850636E0,5.506531E1,1.0736667E0,3.655426E1,2.2067484E2,1.7454969E0,4.5347446E2,1.826124E2,1.3788269E0,4.6375732E0,2.5819292E1,1.6764849E1,5.773205E2,2.0207664E1,1.3284576E2,4.018828E1,2.3468568E2,2.8284144E0,2.6327124E0,6.2168984E0,2.2374878E0,2.7475758E0,1.1979603E1,4.308571E1,3.479707E1,1.7571882E0,1.2265523E2,3.3081924E2,2.2493595E1,1.601188E2,2.5851243E0,2.052449E0],"tree_param":{"num_deleted":"0","num_feature":"17","num_nodes":"53","size_leaf_vector":"1"}},{"base_weights":[1.7166037E-2,-5.5018444E-2,8.253843E-1,4.110583E-1,9.277755E-1,5.846397E-1,-3.3499837E-1,9.4827104E-1,5.215235E-1,4.137443E-1,1.0345355E0,-7.243355E-2,2.6712667E-2,8.635726E-1,1.0230736E0,8.9285564E-1,-2.4891739E-1,3.140938E-2,5.863977E-4,5.428307E-2,2.867995E-2,-5.657771E-2,2.0672033E-2,4.401503E-2,-3.3375196E-2,6.685447E-3,5.1333E-2,-6.842068E-3,4.8756447E-2,-6.1270546E-2,1.3841304E-2],"categories":[],"categories_nodes":[],"categories_segments":[],"categories_sizes":[],"default_left":[0,0,0,0,0,0,0,0,0,0,0,0,0,0,0,0,0,0,0,0,0,0,0,0,0,0,0,0,0,0,0],"id":36,"left_children":[1,-1,3,5,7,9,11,13,15,17,19,-1,21,23,25,27,29,-1,-1,-1,-1,-1,-1,-1,-1,-1,-1,-1,-1,-1,-1],"loss_changes":[1.7972189E3,0E0,4.8604614E1,3.0059769E1,7.208069E0,1.3983612E1,1.7828634E1,4.6883545E0,1.356875E1,1.1847294E1,5.775795E-1,0E0,1.58397875E1,1.13151245E1,1.335022E0,2.8187256E0,8.529866E0,0E0,0E0,0E0,0E0,0E0,0E0,0E0,0E0,0E0,0E0,0E0,0E0,0E0,0E0],"parents":[2147483647,0,0,2,2,3,3,4,4,5,5,6,6,7,7,8,8,9,9,10,10,12,12,13,13,14,14,15,15,16,16],"right_children":[2,-1,4,6,8,10,12,14,16,18,20,-1,22,24,26,28,30,-1,-1,-1,-1,-1,-1,-1,-1,-1,-1,-1,-1,-1,-1],"split_conditions":[2E-1,-5.5018444E-2,6E-1,2E-1,1.96E1,3E0,0E0,1.8E0,-2.4492937E-16,7E-1,1.87E1,-7.243355E-2,4E-1,1.2E0,6.2E1,4E0,3.09017E-1,3.140938E-2,5.863977E-4,5.428307E-2,2.867995E-2,-5.657771E-2,2.0672033E-2,4.401503E-2,-3.3375196E-2,6.685447E-3,5.1333E-2,-6.842068E-3,4.8756447E-2,-6.1270546E-2,1.3841304E-2],"split_indices":[14,0,14,13,0,11,8,14,15,7,0,0,14,13,2,6,15,0,0,0,0,0,0,0,0,0,0,0,0,0,0],"split_type":[0,0,0,0,0,0,0,0,0,0,0,0,0,0,0,0,0,0,0,0,0,0,0,0,0,0,0,0,0,0,0],"sum_hessian":[1.9878025E3,8.34108E2,1.1536945E3,2.2960652E2,9.2408795E2,1.8644388E2,4.3162643E1,8.7843646E2,4.5651497E1,1.365096E2,4.9934288E1,9.845199E0,3.3317444E1,4.17851E2,4.6058545E2,3.0697311E1,1.4954185E1,8.865612E1,4.7853477E1,4.3728676E1,6.20561E0,7.857607E0,2.5459837E1,4.1375552E2,4.0954943E0,2.0036125E0,4.5858182E2,2.222181E0,2.847513E1,4.7678213E0,1.0186363E1],"tree_param":{"num_deleted":"0","num_feature":"17","num_nodes":"31","size_leaf_vector":"1"}},{"base_weights":[1.2803198E-2,-5.474491E-2,8.0764586E-1,3.6137423E-1,9.1184497E-1,5.5946606E-1,-5.0403845E-1,9.358513E-1,4.7755986E-1,8.4128186E-2,6.756876E-1,-7.453144E-2,-2.5172842E-1,8.514253E-1,1.0189549E0,-7.236548E-1,5.807069E-1,1.3353779E-2,-7.1665026E-2,4.031314E-2,1.958156E-2,-5.475388E-2,3.256628E-3,4.3492872E-2,-4.000053E-2,1.10317785E-2,5.1462986E-2,2.1114422E-2,-9.2726804E-2,3.336587E-2,-2.2461182E-2],"categories":[],"categories_nodes":[],"categories_segments":[],"categories_sizes":[],"default_left":[0,0,0,0,0,0,0,0,0,0,0,0,0,0,0,0,0,0,0,0,0,0,0,0,0,0,0,0,0,0,0],"id":37,"left_children":[1,-1,3,5,7,9,11,13,15,17,19,-1,21,23,25,27,29,-1,-1,-1,-1,-1,-1,-1,-1,-1,-1,-1,-1,-1,-1],"loss_changes":[1.6821802E3,0E0,5.13974E1,3.6663094E1,8.948181E0,9.509575E0,9.59548E0,5.116577E0,6.521986E0,1.0144478E1,4.8399124E0,0E0,8.916613E0,1.3759705E1,3.2669983E0,6.406903E0,4.394824E0,0E0,0E0,0E0,0E0,0E0,0E0,0E0,0E0,0E0,0E0,0E0,0E0,0E0,0E0],"parents":[2147483647,0,0,2,2,3,3,4,4,5,5,6,6,7,7,8,8,9,9,10,10,12,12,13,13,14,14,15,15,16,16],"right_children":[2,-1,4,6,8,10,12,14,16,18,20,-1,22,24,26,28,30,-1,-1,-1,-1,-1,-1,-1,-1,-1,-1,-1,-1,-1,-1],"split_conditions":[2E-1,-5.474491E-2,6E-1,2E-1,1.94E1,-2E0,9.9E0,1.8E0,1.0046E3,1.6E0,9E1,-7.453144E-2,4E-1,1.2E0,-1.4E1,-8E-1,8.8294756E-1,1.3353779E-2,-7.1665026E-2,4.031314E-2,1.958156E-2,-5.475388E-2,3.256628E-3,4.3492872E-2,-4.000053E-2,1.10317785E-2,5.1462986E-2,2.1114422E-2,-9.2726804E-2,3.336587E-2,-2.2461182E-2],"split_indices":[14,0,14,13,0,8,0,14,1,7,2,0,14,13,8,7,16,0,0,0,0,0,0,0,0,0,0,0,0,0,0],"split_type":[0,0,0,0,0,0,0,0,0,0,0,0,0,0,0,0,0,0,0,0,0,0,0,0,0,0,0,0,0,0,0],"sum_hessian":[1.9085907E3,7.972111E2,1.1113796E3,2.1121988E2,9.001597E2,1.7216505E2,3.9054825E1,8.5191296E2,4.8246758E1,3.4163326E1,1.3800172E2,6.9542365E0,3.210059E1,4.2817252E2,4.2374048E2,3.3395648E0,4.4907192E1,3.1222956E1,2.940372E0,9.328297E1,4.4718758E1,8.096126E0,2.4004463E1,4.2391437E2,4.2581654E0,5.685584E0,4.180549E2,1.9699559E0,1.3696088E0,4.174849E1,3.1587033E0],"tree_param":{"num_deleted":"0","num_feature":"17","num_nodes":"31","size_leaf_vector":"1"}},{"base_weights":[-7.9897186E-4,-5.448795E-2,7.743358E-1,4.3412054E-1,9.1415024E-1,2.1557009E-1,8.6506003E-1,9.3784106E-1,4.5284724E-1,2.9106122E-1,-1.4566284E0,6.3805026E-1,9.8687476E-1,6.593418E-1,9.584212E-1,7.542672E-1,-1.5546384E-1,7.714639E-3,3.126096E-2,-3.1034658E-3,-1.1385379E-1,3.7780367E-2,-7.018794E-2,1.2533553E-2,5.0632697E-2,2.7187204E-3,4.2563427E-2,4.3091826E-2,5.028627E-2,-1.13272695E-2,4.5534488E-2,-7.984931E-2,2.5160778E-2],"categories":[],"categories_nodes":[],"categories_segments":[],"categories_sizes":[],"default_left":[0,0,0,0,0,0,0,0,0,0,0,0,0,0,0,0,0,0,0,0,0,0,0,0,0,0,0,0,0,0,0,0,0],"id":38,"left_children":[1,-1,3,5,7,9,11,13,15,17,19,21,23,25,27,29,31,-1,-1,-1,-1,-1,-1,-1,-1,-1,-1,-1,-1,-1,-1,-1,-1],"loss_changes":[1.5595771E3,0E0,5.0944458E1,2.9601204E1,7.925598E0,2.7082973E1,2.3041534E0,3.5280151E0,7.3152895E0,9.176294E0,1.0486303E1,1.0632763E1,1.0218201E0,6.124798E0,2.2111816E0,4.2598305E0,1.3940963E1,0E0,0E0,0E0,0E0,0E0,0E0,0E0,0E0,0E0,0E0,0E0,0E0,0E0,0E0,0E0,0E0],"parents":[2147483647,0,0,2,2,3,3,4,4,5,5,6,6,7,7,8,8,9,9,10,10,11,11,12,12,13,13,14,14,15,15,16,16],"right_children":[2,-1,4,6,8,10,12,14,16,18,20,22,24,26,28,30,32,-1,-1,-1,-1,-1,-1,-1,-1,-1,-1,-1,-1,-1,-1,-1,-1],"split_conditions":[2E-1,-5.448795E-2,8E-1,2E0,2E1,4E-1,-3.7460658E-1,2E-1,-2.4492937E-16,6E-1,-5.7357645E-1,1.05E1,1E0,0E0,1.6E0,0E0,8E-1,7.714639E-3,3.126096E-2,-3.1034658E-3,-1.1385379E-1,3.7780367E-2,-7.018794E-2,1.2533553E-2,5.0632697E-2,2.7187204E-3,4.2563427E-2,4.3091826E-2,5.028627E-2,-1.13272695E-2,4.5534488E-2,-7.984931E-2,2.5160778E-2],"split_indices":[14,0,14,11,0,13,15,13,15,14,15,4,6,11,14,12,4,0,0,0,0,0,0,0,0,0,0,0,0,0,0,0,0],"split_type":[0,0,0,0,0,0,0,0,0,0,0,0,0,0,0,0,0,0,0,0,0,0,0,0,0,0,0,0,0,0,0,0,0],"sum_hessian":[1.8456418E3,7.672928E2,1.078349E3,3.1527777E2,7.630712E2,2.1018362E2,1.0509415E2,7.2481433E2,3.8256878E1,2.0189505E2,8.288577E0,3.8878807E1,6.621534E1,5.2148876E1,6.7266547E2,2.542084E1,1.283604E1,1.4429704E2,5.7598003E1,3.468549E0,4.8200283E0,3.735786E1,1.520945E0,2.6029835E0,6.361236E1,1.2868792E1,3.9280083E1,2.274606E2,4.4520486E2,3.4348829E0,2.1985956E1,3.5789552E0,9.257084E0],"tree_param":{"num_deleted":"0","num_feature":"17","num_nodes":"33","size_leaf_vector":"1"}},{"base_weights":[-9.275438E-4,-6.487291E-1,8.277532E-1,-9.517435E-1,-3.8376677E-1,6.6426164E-1,8.933152E-1,-9.9241483E-1,4.0401477E-2,-5.1748997E-1,4.9125057E-1,5.560399E-1,9.700848E-1,1.9745249E-1,9.147064E-1,-1.0214481E0,-2.7696118E-1,-6.65176E-1,3.6912054E-1,-6.238069E-1,1.5442982E-1,5.5225176E-1,-4.0485412E-1,9.5798177E-1,3.9998165E-1,5.698625E-1,1.0326585E0,4.408425E-1,-8.975972E-2,9.189967E-1,-2.899209E-2,-1.4488662E-2,-5.213786E-2,-5.0344862E-2,1.702889E-2,1.0943837E-2,-4.4185784E-2,4.0559724E-2,-1.86466E-2,-4.23803E-2,-1.9501377E-2,2.2888318E-2,-1.3878803E-2,5.376045E-3,3.18788E-2,-3.7587285E-2,4.8955074E-3,5.0208893E-2,-6.0102916E-3,2.2831492E-2,-3.390723E-2,4.61743E-2,1.03126884E-4,2.3331124E-2,5.255077E-2,-3.385824E-2,3.3741597E-2,4.6519652E-2,1.6773371E-2],"categories":[],"categories_nodes":[],"categories_segments":[],"categories_sizes":[],"default_left":[0,0,0,0,0,0,0,0,0,0,0,0,0,0,0,0,0,0,0,0,0,0,0,0,0,0,0,0,0,0,0,0,0,0,0,0,0,0,0,0,0,0,0,0,0,0,0,0,0,0,0,0,0,0,0,0,0,0,0],"id":39,"left_children":[1,3,5,7,9,11,13,15,17,19,21,23,25,27,29,31,33,35,37,39,41,43,45,47,49,51,53,55,-1,57,-1,-1,-1,-1,-1,-1,-1,-1,-1,-1,-1,-1,-1,-1,-1,-1,-1,-1,-1,-1,-1,-1,-1,-1,-1,-1,-1,-1,-1],"loss_changes":[9.514075E2,7.9497375E1,7.741516E0,1.8737457E1,6.2544632E1,6.9560013E0,8.037933E0,8.963715E0,4.700456E0,3.3119064E1,4.1092663E0,1.0256405E1,8.6031723E-1,9.395917E0,3.9656982E0,6.3618164E0,8.786566E0,1.4417682E0,4.8118234E0,2.0561356E1,8.507678E0,2.4729538E0,9.643813E-1,2.4478035E0,7.8765774E0,2.016665E0,1.6613007E-2,4.803048E0,0E0,3.240631E0,0E0,0E0,0E0,0E0,0E0,0E0,0E0,0E0,0E0,0E0,0E0,0E0,0E0,0E0,0E0,0E0,0E0,0E0,0E0,0E0,0E0,0E0,0E0,0E0,0E0,0E0,0E0,0E0,0E0],"parents":[2147483647,0,0,1,1,2,2,3,3,4,4,5,5,6,6,7,7,8,8,9,9,10,10,11,11,12,12,13,13,14,14,15,15,16,16,17,17,18,18,19,19,20,20,21,21,22,22,23,23,24,24,25,25,26,26,27,27,29,29],"right_children":[2,4,6,8,10,12,14,16,18,20,22,24,26,28,30,32,34,36,38,40,42,44,46,48,50,52,54,56,-1,58,-1,-1,-1,-1,-1,-1,-1,-1,-1,-1,-1,-1,-1,-1,-1,-1,-1,-1,-1,-1,-1,-1,-1,-1,-1,-1,-1,-1,-1],"split_conditions":[2E-1,7.8E1,0E0,8E0,4E0,1.5E0,1E0,4.9E0,1.6E0,8.9E0,9.659258E-1,-7E-1,2E0,1.1E1,9.9254614E-1,-3.3E0,6.8E1,-8.2903755E-1,-1.2186934E-1,8.7E1,1.0115E3,-7.0710677E-1,8.4E1,8.746197E-1,1.0213E3,-1.7364818E-1,9.901E2,2E0,-8.975972E-2,2.4E1,-2.899209E-2,-1.4488662E-2,-5.213786E-2,-5.0344862E-2,1.702889E-2,1.0943837E-2,-4.4185784E-2,4.0559724E-2,-1.86466E-2,-4.23803E-2,-1.9501377E-2,2.2888318E-2,-1.3878803E-2,5.376045E-3,3.18788E-2,-3.7587285E-2,4.8955074E-3,5.0208893E-2,-6.0102916E-3,2.2831492E-2,-3.390723E-2,4.61743E-2,1.03126884E-4,2.3331124E-2,5.255077E-2,-3.385824E-2,3.3741597E-2,4.6519652E-2,1.6773371E-2],"split_indices":[13,2,11,11,11,10,6,9,4,4,16,10,5,8,15,12,2,15,16,2,1,15,2,16,1,16,1,5,0,8,0,0,0,0,0,0,0,0,0,0,0,0,0,0,0,0,0,0,0,0,0,0,0,0,0,0,0,0,0],"split_type":[0,0,0,0,0,0,0,0,0,0,0,0,0,0,0,0,0,0,0,0,0,0,0,0,0,0,0,0,0,0,0,0,0,0,0,0,0,0,0,0,0,0,0,0,0,0,0,0,0,0,0,0,0,0,0,0,0,0,0],"sum_hessian":[1.7703002E3,9.937089E2,7.765913E2,4.623581E2,5.313508E2,2.2547006E2,5.511212E2,4.441506E2,1.8207502E1,4.61267E2,7.0083824E1,1.68619E2,5.6851063E1,1.674163E1,5.343796E2,4.2641876E2,1.773184E1,5.4613895E0,1.2746113E1,3.9831393E2,6.2953068E1,6.5976295E1,4.1075325E0,4.5721252E1,1.2289774E2,9.053269E0,4.779779E1,1.5613321E1,1.1283095E0,5.33234E2,1.1456114E0,1.248055E1,4.139382E2,7.837432E0,9.894408E0,1.0821706E0,4.379219E0,7.929173E0,4.81694E0,2.0215932E2,1.9615462E2,3.6949226E1,2.600384E1,1.0984181E1,5.499211E1,2.1374996E0,1.9700329E0,4.3908585E1,1.8126667E0,1.1731035E2,5.587399E0,5.1927915E0,3.8604782E0,2.331304E0,4.5466488E1,2.3743963E0,1.3238924E1,5.224364E2,1.07976055E1],"tree_param":{"num_deleted":"0","num_feature":"17","num_nodes":"59","size_leaf_vector":"1"}},{"base_weights":[1.4187222E-2,-6.260087E-1,8.347193E-1,-9.19977E-1,-3.7480712E-1,1.0210941E0,7.5766164E-1,-9.6462774E-1,8.399954E-2,-5.2404946E-1,5.4818493E-1,1.025309E0,8.363477E-3,5.4584974E-1,8.54281E-1,4.3307233E-1,-9.776418E-1,3.3095545E-1,-4.2118207E-2,-6.058363E-1,7.99535E-2,-5.1982355E-1,6.06867E-1,1.0295587E0,8.746421E-3,3.680499E-1,9.687421E-1,1.5247074E-1,8.815425E-1,5.0371747E-2,-3.042542E-2,-4.926553E-2,1.2912037E-2,-3.4853302E-2,2.509327E-2,-4.1109473E-2,-1.9241022E-2,1.4971502E-2,-2.70834E-2,-3.8426172E-2,8.099588E-3,1.5411052E-2,3.8746636E-2,5.1848974E-2,3.0872423E-2,1.4733006E-2,5.0751057E-2,2.4013491E-2,5.1768024E-2,1.8417032E-2,-5.9896506E-2,4.154875E-2,5.153788E-2],"categories":[],"categories_nodes":[],"categories_segments":[],"categories_sizes":[],"default_left":[0,0,0,0,0,0,0,0,0,0,0,0,0,0,0,0,0,0,0,0,0,0,0,0,0,0,0,0,0,0,0,0,0,0,0,0,0,0,0,0,0,0,0,0,0,0,0,0,0,0,0,0,0],"id":40,"left_children":[1,3,5,7,9,11,13,15,17,19,21,23,-1,25,27,29,31,33,-1,35,37,39,41,43,-1,45,47,49,51,-1,-1,-1,-1,-1,-1,-1,-1,-1,-1,-1,-1,-1,-1,-1,-1,-1,-1,-1,-1,-1,-1,-1,-1],"loss_changes":[9.1304755E2,7.175589E1,1.0166565E1,2.0218048E1,7.304268E1,6.200409E-1,1.0642548E1,8.247833E0,4.8649716E0,2.2533485E1,4.953512E0,6.1016846E-1,0E0,1.2637329E1,6.963806E0,3.401618E0,4.296631E0,3.2568748E0,0E0,1.885849E1,7.6886196E0,8.6940765E-1,3.3052635E0,2.4520874E-2,0E0,5.5541325E0,1.1473312E0,4.837745E0,1.8365784E0,0E0,0E0,0E0,0E0,0E0,0E0,0E0,0E0,0E0,0E0,0E0,0E0,0E0,0E0,0E0,0E0,0E0,0E0,0E0,0E0,0E0,0E0,0E0,0E0],"parents":[2147483647,0,0,1,1,2,2,3,3,4,4,5,5,6,6,7,7,8,8,9,9,10,10,11,11,13,13,14,14,15,15,16,16,17,17,19,19,20,20,21,21,22,22,23,23,25,25,26,26,27,27,28,28],"right_children":[2,4,6,8,10,12,14,16,18,20,22,24,-1,26,28,30,32,34,-1,36,38,40,42,44,-1,46,48,50,52,-1,-1,-1,-1,-1,-1,-1,-1,-1,-1,-1,-1,-1,-1,-1,-1,-1,-1,-1,-1,-1,-1,-1,-1],"split_conditions":[2E-1,7.8E1,-1.9E0,8E0,4E0,9.7E1,0E0,-2E0,2E1,8.9E0,2.4E0,1.69E1,8.363477E-3,1.5E0,1E0,9.978E2,6.5E0,8.3E0,-4.2118207E-2,8.7E1,1.5643446E-1,8E0,1.4E1,9.781476E-1,8.746421E-3,5.3E0,2E0,4.0673664E-1,2.9E0,5.0371747E-2,-3.042542E-2,-4.926553E-2,1.2912037E-2,-3.4853302E-2,2.509327E-2,-4.1109473E-2,-1.9241022E-2,1.4971502E-2,-2.70834E-2,-3.8426172E-2,8.099588E-3,1.5411052E-2,3.8746636E-2,5.1848974E-2,3.0872423E-2,1.4733006E-2,5.0751057E-2,2.4013491E-2,5.1768024E-2,1.8417032E-2,-5.9896506E-2,4.154875E-2,5.153788E-2],"split_indices":[13,2,7,11,11,2,11,10,6,4,3,4,0,10,6,1,12,3,0,2,15,4,6,16,0,7,5,15,7,0,0,0,0,0,0,0,0,0,0,0,0,0,0,0,0,0,0,0,0,0,0,0,0],"split_type":[0,0,0,0,0,0,0,0,0,0,0,0,0,0,0,0,0,0,0,0,0,0,0,0,0,0,0,0,0,0,0,0,0,0,0,0,0,0,0,0,0,0,0,0,0,0,0,0,0,0,0,0,0],"sum_hessian":[1.7361459E3,9.7537524E2,7.607706E2,4.4820343E2,5.271718E2,2.1895242E2,5.4181824E2,4.2915637E2,1.9047068E1,4.541678E2,7.3004E1,2.1767705E2,1.2753751E0,1.7181339E2,3.7000482E2,3.6612756E0,4.2549512E2,1.55455675E1,3.5014992E0,4.000014E2,5.416641E1,3.3930206E0,6.961098E1,2.1638498E2,1.2920729E0,1.2227477E2,4.9538612E1,1.4081765E1,3.5592307E2,2.381061E0,1.2802145E0,4.2307266E2,2.422447E0,1.7771962E0,1.3768372E1,2.007583E2,1.9924309E2,4.0415257E1,1.375115E1,2.392981E0,1.0000395E0,2.6087849E1,4.3523132E1,2.1106808E2,5.3169E0,1.11124695E2,1.1150084E1,6.930523E0,4.260809E1,1.2767964E1,1.3138016E0,2.7074066E2,8.518241E1],"tree_param":{"num_deleted":"0","num_feature":"17","num_nodes":"53","size_leaf_vector":"1"}},{"base_weights":[5.1679835E-3,-7.335257E-1,3.1458855E-1,-7.9785794E-1,4.5799112E-1,4.667382E-1,-2.2088242E-1,-8.3125436E-1,4.3643934E-1,6.586637E-1,-3.4176502E-1,1.4780122E-1,6.492727E-1,-3.8951197E-1,9.034795E-1,5.049906E-1,-8.582354E-1,6.0902E-1,-3.1036725E-2,-2.176148E-2,7.7578115E-1,2.7024064E-2,-8.692878E-1,-4.1750044E-2,6.3717896E-1,3.8631415E-1,8.086488E-1,-8.5774547E-1,-2.115874E-1,-3.489202E-2,9.8495805E-1,4.3040942E-2,-3.086393E-2,-4.6362486E-2,-1.8752493E-2,-1.0860354E-2,3.9585218E-2,2.7393105E-3,4.463967E-2,-8.659883E-3,-5.4713964E-2,-2.937761E-2,5.9516025E-3,1.648075E-2,4.0180683E-2,4.39687E-2,1.2167829E-2,4.8263468E-2,3.6018115E-2,-4.5736216E-2,3.360939E-2,-2.6423369E-2,4.996821E-3,5.0656017E-2,5.0615314E-3],"categories":[],